node_id,emb_0,emb_1,emb_2,emb_3,emb_4,emb_5,emb_6,emb_7,emb_8,emb_9,emb_10,emb_11,emb_12,emb_13,emb_14,emb_15,emb_16,emb_17,emb_18,emb_19,emb_20,emb_21,emb_22,emb_23,emb_24,emb_25,emb_26,emb_27,emb_28,emb_29,emb_30,emb_31,emb_32,emb_33,emb_34,emb_35,emb_36,emb_37,emb_38,emb_39,emb_40,emb_41,emb_42,emb_43,emb_44,emb_45,emb_46,emb_47,emb_48,emb_49,emb_50,emb_51,emb_52,emb_53,emb_54,emb_55,emb_56,emb_57,emb_58,emb_59,emb_60,emb_61,emb_62,emb_63
genre_action,0.07457211,-0.05241155,-0.18983223,0.14257541,-0.11700268,-0.025478337,0.10811121,-0.053644594,-0.15484041,-0.09235464,-0.036617097,-0.101171896,-0.1376831,-0.16990279,-0.18925244,-0.02169318,-0.10259373,-0.095467426,0.09715147,-0.1568757,-0.05954486,-0.04102099,0.16100416,-0.19295652,-0.007207243,0.15798,-0.123340264,0.3584246,-0.035429485,0.12025934,0.063520476,0.09102714,-0.13114558,-0.1510065,-0.03513693,0.09290797,0.052506674,0.02905647,-0.055103827,0.1016011,0.0862621,-0.09655187,0.0973073,-0.10708763,0.12661901,-0.08835208,-0.07086497,0.10616909,0.06343474,0.30465648,0.109488755,-0.009666677,-0.016697645,-0.15971296,-0.06895437,-0.10244929,-0.06449464,-0.10336206,-0.04693789,0.17082597,0.14715435,-0.1633917,-0.2634957,0.028333215
genre_adventure,0.14946733,0.0050999695,-0.11602547,0.040655654,-0.28344956,-0.11649685,0.10928283,-0.21370754,-0.068344705,-0.07184372,-0.042253636,0.16323702,-0.15515487,-0.15872748,0.120117545,-0.028281536,0.044869427,-0.015215162,-0.02080604,-0.17926572,0.013275013,0.11849512,0.056263827,-0.12115193,-0.055935297,0.14756224,-0.13404721,0.2308786,-0.074849576,-0.1634156,0.019152703,-0.012207801,-0.25965202,-0.011064248,-0.0068538114,0.07510263,0.022318725,-0.042063653,-0.38040078,-0.019165406,0.101848036,0.020896813,0.13910405,-0.19804135,0.16463575,0.13033849,-0.0452428,0.130738,0.019589527,-0.040539157,-0.17682512,-0.05428862,-0.11019016,-0.1831107,-0.03565608,-0.013048027,-0.08783991,0.037627064,0.011749265,0.03479879,-0.07907887,-0.091295585,-0.15064311,0.1675048
genre_animation,-0.15230207,0.002411542,-0.30303052,0.10431852,-0.16154532,0.066626064,-0.22079189,-0.008928842,0.03706135,-0.11168437,0.078698345,-0.15582119,-0.10785729,-0.18573833,-0.26029986,0.0023734136,0.09487484,-0.07718744,-0.08773492,-0.18850335,0.10605811,0.059308518,-0.040043317,-0.18656723,0.080028005,0.05044342,-0.14078061,-0.012202812,-0.06560243,-3.2592285e-05,0.054847132,0.039128505,-0.0676402,-0.07251155,0.0058032763,-0.080723435,-0.07416244,0.03640163,-0.20845929,-0.18425801,-0.13707611,0.0011864125,0.0476034,-0.26975563,0.13365683,-0.035416402,0.20782696,0.007707404,0.07118275,-0.08801088,0.008982333,-0.13909411,0.07735955,-0.26718074,0.092093065,-0.15641406,-0.10502406,-0.074791916,-0.17572162,0.16067739,-0.012024576,-0.079808354,0.0018353094,0.100892164
genre_childrens,-0.06790086,-0.15312074,-0.27183205,0.048120372,0.03138601,0.012126893,0.055671398,0.12703045,-0.057864252,-0.05387878,0.22720122,-0.016011393,0.020489363,-0.16346891,-0.22678123,0.20395868,-0.009780804,0.10171749,-0.2806664,-0.18159428,0.051821996,0.031656265,0.0002875099,0.055859357,-0.06212515,0.037066333,-0.0025384608,-0.1077276,-0.10553604,0.06103087,0.022943886,0.053441264,-0.114388056,-0.07152173,0.09883283,-0.040690377,-0.057809383,-0.067079596,-0.21870959,-0.15422907,0.071441345,0.13752052,0.061113615,-0.08761852,0.065683104,-0.09495057,0.034004305,0.21650857,0.08657479,-0.04024475,-0.08469681,-0.029065864,-0.13797931,-0.13902639,-0.21785705,0.09204389,-0.12052314,-0.032481946,-0.032320883,0.3172641,0.13132298,-0.07559772,-0.2486418,0.1166337
genre_comedy,0.042228587,-0.09166469,-0.04008755,0.12536034,-0.22768214,0.024076084,-0.121010445,-0.030145299,-0.07576902,-0.1696781,-0.014288485,0.09393015,0.0241372,-0.029654529,-0.011405857,0.24222074,0.02099228,0.03851016,-0.26110643,-0.06494327,0.06479732,0.13798805,0.034675393,-0.0970409,0.05428297,0.10886826,-0.14783885,0.1616899,0.118393034,0.105405994,-0.013647584,0.18830515,-0.13458586,-0.07578009,-0.014375083,-0.15232767,-0.07130791,-0.019592118,-0.24716687,0.15755072,0.07444115,-0.1678321,0.015006447,-0.23721288,0.09589446,0.019074952,-0.0038878063,0.06832235,-0.024522671,-0.032546073,-0.005283404,-0.10484978,0.07370099,-0.2541652,-0.08961068,-0.052599642,-0.038665716,0.047936916,-0.10668009,-0.012672805,0.12308118,-0.23192962,-0.3295623,0.19864415
genre_crime,0.022000566,-0.16169395,-0.09102004,0.040501483,-0.11440055,0.061038982,-0.099147104,-0.018823987,-0.14024307,-0.052383274,0.2827856,0.2512853,0.15272528,0.00016606569,-0.16737182,0.12839927,0.049961492,-0.06126259,0.00039852885,-0.24075826,0.07898149,-0.087691456,-0.04230294,-0.06717488,-0.00073826325,0.03956239,-0.09346865,-0.11402379,-0.047615144,0.1233932,0.1274232,-0.0062297434,-0.33667785,-0.051056456,-0.00980472,-0.11101565,0.16337289,0.06905775,-0.18691942,0.06647233,0.006980911,-0.14788565,-0.01797643,-0.1295328,-0.06304582,-0.1987144,-0.075053126,-0.085771985,0.11181747,0.21872032,-0.027907368,0.043178026,-0.13595398,-0.07717075,0.17138597,0.08352942,0.18003033,-0.02054969,-0.13589053,-0.046658523,0.16792284,-0.13258128,-0.066019125,0.1988202
genre_documentary,-0.019641364,0.117822975,-0.263111,-0.022308307,-0.21684802,-0.08397544,-0.12264421,0.09297998,0.097010545,-0.2802419,-0.039226614,0.15956613,-0.06721708,0.08023383,0.061414436,0.18845141,0.12241854,0.116255604,-0.0731996,0.10551075,0.19216089,0.11520392,-0.08794493,0.07651572,-0.20386419,0.05840077,-0.0057554864,0.14341293,0.20329084,-0.13564627,0.102978334,0.045832604,-0.013549201,-0.14204265,0.004615415,-0.084962696,-0.1079721,-0.061385836,-0.18301883,-0.11771362,-0.010729809,0.13743928,-0.0529241,0.052485038,-0.010760683,-0.12146791,-0.07971115,-0.029391818,0.1475411,0.05818182,-0.17411987,-0.027383206,-0.049498286,0.06873632,0.113030896,-0.050448302,0.14347409,-0.061456606,-0.14353298,0.06420502,-0.030710617,-0.3536482,-0.1881135,0.0069349315
genre_drama,-0.048047286,-0.15369812,-0.13171816,0.057708297,-0.16489248,-0.07025854,-0.05648522,-0.20146638,-0.22792444,-0.21299465,0.025712835,0.035573687,-0.017202396,0.0140890675,-0.03347397,0.033137277,0.010109016,-0.18457924,-0.087217815,-0.18194035,0.18231614,-0.08743149,-0.04723181,-0.045271542,-0.03228638,0.17173946,-0.07361539,0.02306157,0.17473593,-0.0063267024,-0.027136398,0.039210953,-0.25505272,-0.11492919,-0.1043553,-0.07893349,0.06217695,-0.019233128,-0.30952787,0.06513436,0.01452838,-0.007217729,0.038109507,0.022497483,-0.051718734,0.041321114,0.05865067,0.097993225,0.11119761,0.15243492,0.0102921035,-0.026685111,0.17454292,-0.19130623,-0.08665532,0.06334408,-0.33353502,-0.13332543,-0.21585917,-0.0846564,0.033763774,-0.09748418,-0.061731145,0.2336525
genre_fantasy,0.13191865,-0.042160295,-0.0548722,0.16357188,0.1228751,0.05111708,-0.22135709,-0.26157743,-0.16662718,-0.08566462,-0.10897849,-0.05133467,0.042441946,-0.19431527,-0.28119949,0.039095066,0.07325233,0.1195315,-0.26505235,-0.29666606,-0.012082659,0.10203686,0.09931744,0.0027260315,0.0437475,0.0604938,-0.14012288,0.2135101,-0.039862122,-0.03811811,0.04734683,0.032500476,-0.14519857,-0.046018213,-0.06379642,0.017304957,0.008990559,-0.010599742,-0.041559927,-0.07189996,-0.030027095,0.01909549,0.059219457,-0.10684093,0.17968248,0.21175604,0.12901193,0.14777796,0.063164584,0.110096216,0.10846206,-0.117204696,-0.074680775,-0.04718659,-0.18119797,0.042207405,0.08616395,-0.066558294,0.017799927,-0.124972485,-0.003090353,-0.19691466,-0.057508122,0.22426777
genre_film_noir,0.03500536,-0.07490181,-0.23099321,-0.012213474,0.0384213,0.11323212,-0.2856837,0.10064816,0.027463384,-0.013694851,0.10394681,0.26432875,0.04592828,-0.18963504,-0.09467626,-0.016570995,0.010103145,-0.14705464,-0.22625016,-0.10254128,-0.050381865,0.07551299,-0.07732967,-0.059001423,0.0044590794,0.21007077,-0.097951554,0.085350305,0.08671116,-0.10027497,0.0215753,-0.05259824,-0.21111543,0.021179767,0.04448796,-0.17708446,0.16457036,0.18963794,-0.062596045,0.2120643,0.023687044,-0.22742401,-0.065734126,-0.046003003,0.037449993,-0.10524485,-0.20693846,0.025853807,-0.11764221,0.08746323,0.10580841,-0.05376842,-0.14932446,-0.06552716,0.12485098,0.16882707,0.15859766,-0.12752044,-0.09552417,0.14745013,-0.12086131,0.046256304,0.12102662,0.08249363
genre_horror,-0.11649186,-0.17114769,-0.06198712,-0.085186705,-0.18545961,-0.07852075,-0.06343365,-0.025003934,0.056498677,-0.100663744,-0.017970763,0.04885241,0.012081897,-0.07542079,-0.14114593,0.041599516,-0.028862605,0.093572766,-0.34851965,-0.14345348,-0.004626116,0.082858786,0.12792331,0.019632274,-0.03662806,0.17901196,-0.22858445,0.26795638,0.0041415137,0.07032798,0.0049817986,-0.13398933,-0.12347095,-0.116694555,0.10536246,-0.09053386,-0.10255991,0.04355525,-0.07756492,0.048230737,-0.18143503,-0.0114910025,0.017911837,-0.12007015,0.034501154,0.08824574,-0.2012071,0.15508357,-0.05992054,0.31978086,0.011540094,-0.12098049,-0.08525197,-0.2576416,0.11390047,-0.07951134,-0.07150823,-0.004135078,-0.03987909,-0.012759524,-0.048769895,-0.2799919,-0.039966557,0.09284666
genre_musical,0.051657468,0.05301015,-0.15239066,0.19628432,0.09378657,-0.03565346,-0.09151715,-0.2678932,0.0791399,0.034550138,0.15766749,0.079981476,0.043799184,-0.0899537,-0.16862176,-0.047225457,-0.008328497,0.07415654,-0.10722763,-0.16128597,0.124272555,0.022726916,-0.037559018,-0.0014839804,-0.00040354475,-0.007684977,-0.10132775,0.2210395,-0.0060944916,0.09372325,-0.07124728,-0.008727003,0.05043653,-0.23776272,-0.05101097,-0.14907062,0.03878176,0.19092031,-0.19436522,0.1650471,-0.06137319,0.10383753,0.09753959,-0.15647033,0.104815714,-0.1097546,-0.07444962,0.11998057,0.0068731788,0.13839889,-0.062623724,-0.0346749,0.11918028,-0.025214612,-0.09742085,0.1105005,-0.10790208,-0.036553886,-0.24530491,0.32783356,-0.041138586,-0.2534222,0.017836958,0.20844105
genre_mystery,0.13493256,-0.09833962,-0.1465437,-0.04557726,0.016662635,0.10552188,-0.21663392,-0.063576005,0.1865745,-0.05036488,-0.056914583,0.096150964,0.10856172,0.022955943,0.12414076,-0.16130586,0.05778506,-0.13761221,-0.04955483,0.0041998583,0.08888317,0.12546413,0.13729794,-0.012326938,-0.09944789,0.05775135,0.020915577,0.10950144,-0.17125946,-0.15422,0.057700407,0.102121,-0.22349901,0.060664605,-0.019767908,-0.03221841,0.0475318,0.07268919,-0.028765019,0.15521197,-0.0208334,0.02626456,-0.017193772,-0.17969744,-0.012648884,-0.14777137,0.14580086,0.12723577,-0.04957501,0.1373084,-0.051776953,-0.17299302,-0.038470495,-0.012253555,0.29031286,-0.13424675,-0.2549734,-0.06422074,-0.15207788,0.12306907,0.04745837,-0.07262365,-0.3318272,0.24314478
genre_romance,-0.039529916,0.055128425,-0.15309392,0.16457646,-0.12425639,0.027943874,-0.104151584,-0.23179187,-0.12144318,-0.22504887,-0.023967234,0.22869451,0.07050388,-0.0925571,0.08926914,0.07511888,0.116096176,0.14494759,-0.20354821,-0.17431648,0.12332348,0.043156993,-0.04347284,-0.1706153,0.14410949,0.04698491,-0.11396154,0.20718919,-0.0028935305,0.013758187,-0.036924887,-0.036462937,-0.18320495,-0.17391126,-0.14493309,-0.058799904,-0.15622324,-0.027182644,0.049179126,0.09027019,-0.039617673,-0.06813752,-0.040138558,-0.18349014,-0.017437432,-0.12217217,0.15854454,0.103040494,-0.005431723,0.2674514,-0.04291742,-0.12072832,-0.04709933,-0.10474618,-0.053344496,0.113853596,0.04414509,-0.15131858,-0.13006936,0.08409066,0.17713721,-0.19044413,-0.15777767,0.087695815
genre_sci_fi,0.07783041,-0.12308535,-0.16456647,0.14521879,0.08103144,-0.08877013,0.12834959,0.031479824,-0.1463147,-0.13946843,-0.023734253,0.050528612,-0.09560776,-0.109477736,0.033577893,-0.012251081,0.045063682,-0.13915904,-0.17761807,-0.13877401,0.027479803,-0.20366734,0.006406475,-0.17940335,-0.050740674,0.22310749,-0.18888548,-0.21893032,-0.08953548,-0.1227899,0.030962491,0.05206904,-0.11552918,-0.14677894,-0.03865784,0.008556702,0.01796949,0.0817627,-0.2169538,-0.017338255,-0.100122735,-0.08919092,0.15615363,-0.1481767,0.22874275,0.14553052,0.012705712,0.063398756,0.14582948,0.29917946,0.03243652,0.046410367,-0.15673447,-0.14071524,-0.08945428,0.043646898,0.15567482,-0.11629609,0.12230301,0.1261224,-0.05152974,-0.11257251,-0.14019465,0.1350659
genre_thriller,-0.110614754,-0.020759603,-0.09521297,0.004204005,0.08909946,0.116411276,-0.007830083,-0.030617444,-0.051238827,-0.07384402,-0.05093676,-0.0779226,0.019169,-0.23855993,0.15320446,-0.08495681,0.11957571,-0.23730485,-0.16670428,-0.17562059,0.0028580704,-0.16456853,0.08290289,-0.11219812,-0.007313657,0.22741681,-0.203516,0.27103856,-0.057274327,0.10705946,0.07598353,-0.08122286,-0.23227932,-0.024447888,0.018078817,0.05082967,0.027717015,0.10031247,-0.23536834,-0.17028321,-0.02087841,-0.025666097,0.14791901,-0.096134305,-0.06553332,0.116436325,-0.027134465,0.13803127,0.100613005,0.020138334,0.0504985,-0.050489552,-0.03670565,-0.2501971,-0.022853548,0.16526066,-0.26703173,-0.1290863,-0.12708241,0.14149404,0.08639666,-0.062406126,-0.055447087,0.11384917
genre_war,-0.2170025,-0.036574747,-0.26472571,0.024516467,-0.24967927,-0.06768168,-0.073095866,-0.15688848,-0.15793887,-0.050230693,0.033542603,0.15602264,-0.091621205,-0.034083135,0.032695375,-0.1916461,0.041841865,-0.014018834,-0.08010793,-0.20240255,-0.027233928,0.04032509,0.074688725,-0.03618989,0.02177021,0.003637879,-0.039630577,0.14617743,-0.18829207,-0.058031473,0.1832554,-0.0009936227,-0.26563212,-0.10902388,0.05058729,-0.15887292,-0.20905924,-0.07507142,-0.12355743,0.14352442,-0.080111265,-0.08713959,0.15240484,-0.011485586,-0.0010385715,-0.055443075,-0.18575239,-0.018299965,-0.18546042,0.126097,0.030854149,-0.040555235,-0.015769059,-0.11533701,0.20842768,0.053361747,-0.104054816,-0.2188021,-0.2003173,-0.126368,-0.023627268,-0.1580665,-0.05245758,0.052372955
genre_western,0.07820319,-0.15109348,-0.1838021,0.20675024,-0.019032644,-0.146884,0.023693187,-0.019107386,-0.075892046,-0.14820495,-0.087653056,0.1970427,-0.01833342,0.069261625,-0.008046273,0.20392165,-0.024488175,-0.010793481,0.044185217,-0.16297929,0.12902327,0.029201055,-0.16754356,-0.0580894,0.013501234,0.17468387,0.060687043,0.17521724,0.26823854,-0.025520014,0.026320348,-0.002319976,-0.063925214,-0.1703745,-0.14653476,0.11517292,-0.15978824,0.014798825,0.023306685,0.007299259,0.10813111,-0.19521625,0.047820687,-0.19736616,0.19631164,0.14754833,-0.00021411851,-0.043459162,-0.11185252,0.18653467,-0.14315112,-0.014884216,0.0826625,0.08052319,0.15205164,0.19482398,-0.09409443,-0.117505506,0.0650825,0.1406682,0.16423129,0.0725312,-0.20321539,0.1549973
movie_1,0.22859353,0.06415561,0.15477332,0.03909718,0.0061095865,-0.057922214,-0.062509805,0.0018058759,0.14054297,0.016686067,-0.010270445,0.11326609,-0.1609059,0.20512304,0.17021488,0.10161594,0.14867169,0.13514173,-0.09406857,0.10857614,-0.24240565,-0.09341536,0.120188475,0.005140416,-0.14011091,-0.23329112,0.10161613,-0.059325937,-0.08919635,-0.07570726,-0.12537335,-0.23564509,0.22131523,0.13583371,-0.050696097,-0.15338397,-0.17370827,0.081642106,-0.06683335,-0.08591386,0.15395148,-0.11491193,-0.09560692,0.015667068,0.052873738,0.19663982,-0.09156971,-0.006494538,-0.007177206,0.089907326,0.11183258,0.08397401,-0.076483324,0.252896,-0.10109452,0.13093771,0.031337325,-0.03710596,-0.2159024,-0.023878537,-0.0059395656,0.18385431,-0.052706026,0.07343823
movie_10,0.22735852,0.22713508,-0.056694612,0.12637432,-0.10624246,-0.073681094,0.036055088,-0.09368467,-0.13623822,0.12741056,0.20935035,0.171566,-0.043769535,0.17872468,0.13497487,0.029970082,0.06305025,-0.16205457,-0.019837756,0.0974504,-0.0641092,-0.13379055,0.10047101,0.038087785,0.020178515,-0.19067724,-0.18619238,-0.023748368,-0.16276965,0.14843355,-0.15768625,-0.094867885,-0.003652006,0.19402885,0.06738532,0.099105,-0.2509907,-0.04299448,-0.07755573,0.13530307,-0.02880507,0.1527317,0.071466945,0.13489994,0.010970864,0.09199039,-0.173722,0.17578515,0.08267503,-0.08524403,-0.04439664,0.16227892,-0.043193597,-0.15416427,0.19129275,-0.11904922,0.07235185,0.20025858,0.13391188,0.05459103,-0.021389425,-0.005033275,-0.0007481186,-0.13335878
movie_100,-0.10602422,0.121229574,0.10348803,0.04583791,-0.15782039,0.1845772,0.06003759,-0.19331993,0.20230694,0.21312846,0.05594767,-0.07424985,-0.08062955,0.17863461,-0.004184051,-0.07747504,-0.08291229,-0.058920402,0.015873397,0.16118643,0.093122594,-0.2094648,0.084164456,-0.2583025,0.24500124,-0.07279946,0.26355305,0.054068673,0.020261282,-0.116856374,0.06102882,0.066926144,0.17182751,0.10759106,0.080401756,-0.17797813,-0.100980625,0.15246692,-0.14790304,-0.036745682,0.07090394,-0.10140089,-0.07520816,-0.15127148,-0.053792216,0.056239188,0.03556558,0.038519237,0.1757573,-0.037797496,0.004097948,0.03759338,-0.013343534,0.2646391,0.103914335,0.020719012,-0.055192668,-0.09351999,-0.20749949,0.013743861,0.0036373525,0.15635163,-0.06921237,0.10451787
movie_1000,-0.000108350556,-0.022534922,0.13165142,0.18954806,0.19085237,0.11600348,0.33391014,-0.09424455,0.1775145,0.04685298,0.107831314,0.27320766,-0.24264677,-0.11189374,-0.036740653,0.17114802,0.035870403,-0.0073067974,0.053859305,-0.042570867,-0.051543184,0.025044179,0.10860997,-0.08156233,0.041034844,-0.021459706,-0.06652537,0.12074163,-0.16765203,0.082081236,0.03340969,-0.016077304,0.21350609,0.029700832,-0.1255441,0.07241292,0.17177516,-0.1460381,-0.14840068,0.20086326,0.16498564,0.18650654,0.018540977,0.16818357,0.044368163,0.073467575,-0.05670014,-0.051373873,0.115456276,0.007705955,-0.005328777,-0.12846684,-0.15932769,0.13452925,-0.17023483,-0.010161083,-0.12946479,0.10242018,-0.14747202,-0.083432965,0.08895945,-0.009127795,-0.08654159,0.10168041
movie_1001,-0.11819824,0.12532797,-0.06204628,-0.11315671,0.09937022,0.1401961,-0.16736235,0.08182926,0.1636141,0.009829329,-0.054881416,-0.0043722866,-0.2790633,-0.06443549,-0.22640364,0.11625241,-0.19951423,0.035295583,-0.036426753,0.03428573,-0.1497314,0.12718795,-0.12769915,-0.12360524,0.12040747,-0.08052453,-0.024526253,-0.09212637,0.11859637,0.17847276,-0.03558185,0.09628566,-0.029299254,-0.081121266,0.03762074,-0.05244297,0.06704816,0.26820892,-0.15813449,-0.04700077,0.08706887,0.18327698,0.0052926973,0.0014092514,0.0018138468,0.13254288,0.12711152,-0.09521397,-0.1485951,-0.14819112,-0.13959022,0.08441166,0.1491788,-0.010065724,0.111243345,0.21595865,0.032224607,0.08946722,-0.21432324,0.2578458,-0.056999203,0.022681,-0.14762323,-0.11910844
movie_1002,-0.13904466,-0.022214321,0.17534912,0.2040324,0.044626743,-0.19613367,0.19789326,-0.04738186,-0.11123035,-0.000871775,-0.051303037,0.20166954,-0.09433068,0.011247442,-0.14616057,0.23453133,0.004532964,0.15310149,-0.040039647,-0.03177946,0.19381414,-0.011434871,-0.11297004,-0.29306757,-0.01977115,0.17055385,0.16461512,-0.0032007792,0.12345947,0.05136792,-0.17599657,0.1643252,0.084610924,0.16547754,0.03783793,-0.010260868,0.09894845,-0.018433755,-0.03608688,-0.056861278,0.00653054,-0.20196636,-0.030773144,0.19018377,-0.08073326,0.14817068,-0.03728795,-0.08053403,0.16219321,0.02625934,-0.17297675,-0.15802841,0.05876569,-0.0061725597,-0.03745904,0.21603702,-0.12257168,0.021766828,0.017414799,0.025499962,-0.23548965,0.013228274,-0.13275906,-0.042303003
movie_1003,0.025914587,0.03401565,0.014512522,0.056849435,0.13604194,-0.008058872,0.14727257,0.046451412,-0.042459656,0.073781185,0.076089896,0.050705906,-0.029751986,-0.13465042,0.26525617,-0.098432906,0.07500421,-0.011376252,-0.08796774,-0.21289091,-0.07122419,-0.09072217,0.084475465,-0.01536114,-0.12728003,0.061128616,0.16174059,-0.039941534,0.16785495,0.14058888,0.01373667,0.07377951,0.05687647,-0.14488527,0.15425795,-0.044245634,-0.27658644,0.07906742,0.16253258,-0.23184796,0.12451759,0.15186106,0.16316222,0.092915125,0.13041511,-0.15360914,0.2110268,0.15877222,-0.007030504,0.07749776,0.037867133,-0.02413988,0.17681628,0.28331777,0.22409059,-0.20061328,0.06400187,0.09383429,0.063576296,0.06136741,0.10031731,0.05049663,-0.08397377,0.09680226
movie_1004,0.06420163,-0.025293667,-0.08156399,0.09625698,-0.120502524,-0.04562938,0.0046064286,0.1127442,0.07849394,-0.18245135,0.037498407,0.0058961725,-0.0312752,-0.05751668,-0.11357468,-0.1785867,-0.05593108,-0.21178561,-0.14299338,-0.0014741354,-0.13347836,-0.2967792,-0.18710227,-0.025661908,0.068741396,-0.014155444,0.10702305,-0.25719872,0.24308324,-0.03204657,-0.06872079,0.109373346,-0.0074048825,0.08094125,-0.2203607,0.09635379,0.1856273,0.031026255,0.07309257,-0.0040309806,-0.05240165,-0.30354366,0.24883416,0.07428344,0.014312079,-0.010790481,-0.17005233,-0.057862733,0.08512618,0.17070359,-0.0052365544,0.073768064,0.039735716,-0.14706355,0.10794351,-0.20493507,-0.035753876,-0.060540758,-0.008019344,0.15709446,0.123212114,0.120941356,-0.110485144,-0.011932165
movie_1005,-0.100038484,0.10822395,-0.15738386,-0.09890494,-0.18659568,-0.044797637,0.13190807,-0.26586583,-0.07552878,0.094674975,-0.08169576,-0.12575817,-0.11311248,0.10069299,-0.033125523,-0.15530375,0.004206261,0.018054856,-0.2002163,-0.0032449753,0.017395502,0.16417246,0.077277206,-0.09505885,-0.00080184697,-0.20036937,0.070032515,-0.1339741,-0.017521005,-0.3380051,-0.008818094,-0.0008836984,-0.08984219,0.19668552,-0.114997454,-0.20388758,0.16163492,0.036271524,0.06399791,-0.12875575,0.07912454,0.011738278,0.021817489,-0.0122040445,-0.11601805,-0.15880863,-0.14621264,0.10638703,-0.1209167,-0.06718402,-0.03147379,-0.059979048,-0.093017444,0.04848488,-0.15822272,0.12880373,-0.095441826,-0.28819007,0.041096434,0.13995098,0.11404402,-0.09123991,0.14654991,0.11184769
movie_1006,0.24246591,-0.083767995,-0.087642916,0.25916144,0.16897959,-0.035925176,-0.05886726,-0.25191393,0.07452411,0.07294092,-0.06801724,0.21517806,-0.0043279952,0.05757313,0.092485525,-0.030731743,0.1514185,-0.09288813,0.07995979,0.014153711,-0.10342388,-0.19623719,0.27000704,0.12355639,0.11528757,-0.07246037,0.10092009,-0.028699119,0.12075708,0.099943966,0.03448322,0.08988604,-0.009500411,0.005459013,0.024479376,0.13479716,-0.22189704,0.09405332,-0.22483282,-0.009826682,-0.02745328,-0.05224851,0.010707022,-0.16980428,-0.27248356,-0.10084883,-0.030212268,0.12200415,-0.14084321,-0.09316965,0.070119366,-0.021234993,-0.108376525,0.0020906674,-0.06352233,-0.11535576,0.22518513,0.083204456,-0.070448875,-0.06527978,0.15722317,-0.05879812,-0.12430552,0.123691045
movie_1007,0.14445983,0.031497598,-0.031083183,-0.025042025,-0.1517483,0.13134505,0.18153869,-0.10352743,-0.07875799,-0.1298782,-0.096564114,0.21395983,0.010009682,0.17036714,-0.048227366,0.12922049,0.01783748,-0.057346847,0.12535685,-0.0027113473,0.11748522,-0.013705971,-0.037743445,-0.022986546,-0.07245686,-0.16917478,0.15616693,-0.05073056,0.0065153525,0.0330757,-0.14751127,0.0034550105,0.19149697,-0.08900903,-0.018077128,0.13846272,0.063149996,0.086893335,0.06370056,-0.08948297,-0.068720795,-0.23059174,0.11883681,0.05934497,-0.08830338,-0.16496153,-0.17901023,0.09702676,0.09692,-0.11071583,-0.114548415,-0.2712408,0.25664383,0.34604445,-0.19045085,-0.004125016,0.11378953,-0.10657784,-0.02281652,-0.15845986,-0.09525518,-0.12864558,-0.017133653,-0.038134925
movie_1008,-0.086989865,0.050666165,0.11606076,0.053984538,0.05031227,-0.05760055,0.061033703,-0.0357357,-0.12991193,0.19950552,0.112883136,-0.09512751,-0.22462638,-0.16822526,0.09308338,0.043755267,-0.06264428,-0.21365725,-0.07052234,0.020514138,-0.018954217,-0.030028129,-0.04666776,0.11170177,0.20335476,0.0054512387,0.0643523,0.15126841,-0.15586036,0.14351378,-0.09928688,-0.10595393,0.1293484,-0.00803573,0.100694865,-0.20221885,-0.10268853,-0.08371759,0.050161213,-0.09546214,-0.07310158,-0.26125652,-0.04335305,-0.28778613,0.18412384,-0.15596819,0.09206277,-0.17095894,-0.03140554,0.001932796,-0.07717818,0.18198606,-0.064154305,-0.02699717,0.067955576,0.11189679,-0.33263215,0.12432153,-0.044489153,-0.12817262,-0.081463814,0.06417774,0.09774152,-0.10702961
movie_1009,-0.03813188,0.18960802,0.21234094,-0.120370634,0.09263998,0.27498853,-0.059146646,-0.0041803895,-0.06392864,-0.039240163,0.16714236,0.23921762,-0.043623712,-0.092450984,0.0717899,0.053526405,-0.040087253,-0.06986993,0.008511497,0.09296089,-0.039506655,0.041958213,-0.053753756,-0.28946865,-0.060164087,0.025571575,-0.10671288,-0.24013096,-0.06450321,-0.08140344,0.14827093,-0.06221648,0.017658839,0.3343122,0.18959497,-0.107200086,-0.22168282,0.08826367,0.012883609,-0.03616635,-0.06359974,0.042365156,-0.041045997,-0.01205907,-0.23356757,0.16097265,-0.18526568,-0.038230874,-0.017643053,-0.10256856,0.08720572,0.02938791,0.0074789356,-0.029508758,0.08867359,0.09031918,0.08738176,-0.1203628,-0.053919375,-0.10863999,0.14135352,0.21719338,-0.0064832675,-0.093550205
movie_101,-0.09758319,0.0105916215,0.091507554,0.22717933,0.020752408,-0.11292868,0.18433385,0.018254554,-0.1970094,0.108656816,-0.1616896,0.10880485,-0.0921726,0.26395166,0.019198006,-0.04911157,-0.042619746,-0.16232324,-0.125356,-0.02327468,-0.3572088,0.1017745,0.21137981,-0.12382201,0.03139592,-0.12747923,0.18840192,-0.07205643,-0.080683164,-0.070367396,-0.12593688,-0.07785111,0.04797147,0.038198307,0.087170795,0.006437783,0.07945419,0.012478151,0.14154352,-0.14110807,-0.17814322,0.049004562,0.22274576,-0.20619328,0.1350928,-0.18794999,0.01929956,0.059683844,0.042523693,0.049148794,0.16116989,-0.08830174,-0.0073996307,0.086716995,0.164721,0.12515904,0.0011869877,-0.030944757,-0.03191612,-0.17802703,-0.050705537,-0.067572616,-0.080691054,-0.048573267
movie_1010,-0.03156145,0.065867834,-0.17755319,0.01422614,-0.11645065,-0.045350667,-0.16849154,-0.15205649,0.1279212,-0.080740675,0.13669175,-0.05594004,-0.2625726,-0.03163221,-0.14604264,-0.07198443,0.011142571,-0.20719561,-0.029078888,0.075854965,-0.07185832,0.10601824,-0.028364591,-0.1902774,0.064818576,0.097860746,0.12705001,0.07156053,0.15767196,0.098272555,0.051846616,-0.1871036,0.23926267,0.034410823,-0.035009746,-0.19309413,0.07927853,0.20754917,0.19118044,0.10627512,-0.19093534,0.0717021,0.14124297,-0.17214157,-0.18540582,-0.035846107,0.19433415,0.03430462,0.10006948,0.20251207,0.034864094,0.020941122,-0.14169115,0.0318944,-0.009918053,0.011792002,0.036999665,-0.19688936,-0.04701334,-0.027414264,0.059951067,0.00661006,-0.15557572,0.19863915
movie_1011,0.21748723,0.050018646,0.14258729,-0.08774162,0.1170941,0.25796276,0.05419003,0.13643894,0.119842276,0.33433858,-0.10858936,0.22496918,-0.26245117,-0.0721197,-0.08039867,0.13970278,0.1560614,0.08442558,-0.008371354,0.048155997,-0.047221746,-0.0035546378,0.1795625,0.13580474,-0.01256379,-0.04782608,0.24255906,0.14720616,0.023526259,-0.0012647936,-0.04712644,-0.11688279,0.08706835,-0.035940126,-0.09406162,0.114129014,0.017272368,-0.1183602,0.117292054,-0.06451199,0.09846189,-0.19063953,0.0684391,0.054131415,-0.028170004,-0.0149284275,0.047883157,-0.10768314,0.17542194,0.057048947,-0.0059580407,0.097304694,-0.00096492504,0.15452088,-0.12213426,0.035917364,0.12813164,0.104591824,0.12815976,0.03979201,-0.095905416,-0.09965385,-0.22130144,-0.13018775
movie_1012,0.047761623,0.34167293,0.1035888,-0.052439626,0.06421581,0.095055245,-0.02566367,0.07548382,0.0035480137,0.038129047,0.2690819,0.03467358,-0.036401138,0.05640542,0.036476262,-0.009417964,0.019308254,0.15704294,-0.057416037,-0.051000826,-0.10366368,-0.117362835,0.03281568,-0.19463962,0.23828775,0.17641586,0.018707383,0.15077421,0.043280363,-0.01704427,0.021282975,-0.038576122,0.19224054,-0.04787606,-0.09873115,-0.13300319,0.03950935,0.05440843,0.1078027,-0.06668093,-0.18400034,-0.05537666,-0.032730173,-0.20372562,-0.05958709,-0.06984789,-0.030284673,-0.052502695,-0.046868715,-0.12087105,-0.039347433,-0.019414622,0.28760034,0.030059766,0.19446085,-0.207561,-0.11241914,-0.1584051,0.15523799,0.16624868,0.13575603,0.24353871,-0.15341625,-0.06789505
movie_1013,0.21076994,-0.14960858,-0.0050447467,-0.14999802,-0.02852563,-0.06654437,0.2811636,0.0395061,0.0031857265,0.13900785,0.15147555,0.11906229,-0.087662965,-0.021358334,-0.07775211,0.12252687,-0.019251721,0.083028056,-0.15597811,0.15155376,-0.05536935,0.034215383,0.20856152,0.14259438,0.12765123,-0.07278645,0.21261917,-0.0715136,-0.16390353,-0.12358112,0.026337136,-0.041967835,0.021902634,-0.034817796,0.069036946,0.06344306,-0.06217007,0.31516045,-0.049430706,-0.08332643,-0.103568934,-0.18999052,0.12754858,0.056882013,0.09070765,-0.055213057,0.034432802,0.09772333,0.22454976,0.12899657,0.3282534,-0.019095218,-0.08635388,-0.16100205,-0.023554303,0.10985717,0.09407422,0.04945823,-0.045841057,-0.026872074,0.0029324903,0.09203676,-0.1529224,0.1464956
movie_1014,0.18893972,0.10476756,-0.06849334,-0.090728186,0.16020717,0.012850222,-0.0445599,-0.12638843,0.022312386,-0.17250523,-0.023166437,0.0854939,-0.062533215,0.25964424,-0.14305337,-0.16561373,0.1994244,-0.0018173696,0.16378106,-0.045811735,0.05136163,0.16214053,0.07779578,-0.196987,0.2035236,-0.14540373,-0.15736394,0.00025932482,-0.18289822,-0.08491079,-0.12380245,-0.13287862,0.004254458,-0.060668122,0.10120224,-0.06447416,-0.1369363,-0.045790263,-0.02288674,-0.026075285,-0.021009024,-0.10052341,-0.15642008,0.059848506,-0.061416294,0.063691296,0.06921935,0.20311807,-0.14842664,0.045661207,0.18065609,0.12274805,-0.105442464,0.09547718,-0.06985219,-0.11415122,0.080543235,-0.25167438,-0.26020172,-0.03307489,-0.055073723,0.08602677,-0.19425312,-0.08037562
movie_1015,-0.14422536,-0.116826594,0.13071392,0.034485415,0.11894526,0.3486316,0.14193067,0.21305579,0.09740328,-0.16714278,0.15516528,-0.030472826,-0.07050813,0.023982158,0.11677433,-0.11084788,0.0113088135,0.16038251,-0.00852326,0.18998237,0.05689685,-0.0043073907,0.060738947,0.12685506,0.06577234,0.041779082,0.1989314,0.042870685,-0.15887414,-0.011893962,0.10471631,-0.108505644,-0.015302537,-0.14745623,-0.030340485,-0.06581186,0.024775464,-0.18426536,-0.24090634,0.113888316,0.10297605,0.15387386,0.16486529,-0.06582153,-0.09595298,0.025179045,0.019794434,0.051218484,0.1157232,-0.17040855,0.0065354626,-0.16987576,0.078441285,0.15069391,0.099551454,-0.1638573,-0.06685347,0.011452017,0.07114625,-0.20741214,-0.108540766,0.1762415,0.16576098,-0.009035172
movie_1016,-0.011158007,-0.02704308,0.16846249,0.24579863,-0.010090766,0.19994655,-0.0045384984,-0.21219076,0.11005424,0.20266168,0.09953426,0.09317238,-0.20109236,0.13788046,0.10329638,-0.052873172,-0.020692386,-0.1603655,-0.11476401,0.08031143,-0.15251036,-0.12846847,-0.10208399,-0.0848014,0.27652603,-0.1838578,0.17897642,0.07465625,0.113852456,-0.12708445,-0.02356605,0.15304235,-0.04521376,0.047144163,0.10838048,-0.059731573,-0.03701969,0.030337457,-0.16446675,-0.065709844,-0.12847145,0.16070807,-0.09939479,0.09321089,0.07640482,0.21948022,0.123904966,0.083441086,-0.04181201,0.21638612,-8.481854e-05,0.08273786,0.08041977,0.10575263,0.014201644,-0.06529423,0.11313531,-0.18037762,-0.008960017,-0.11685323,0.20198065,-0.0073637846,-0.07388158,-0.05523987
movie_1017,0.033461824,-0.1115072,0.15233009,0.14505059,-0.0003768915,0.01694747,0.04061485,-0.081897296,0.22981837,-0.07392675,0.16939077,0.03980769,0.054780927,-0.07486811,-0.07539603,0.12261597,0.21217318,-0.14082287,-0.10744061,0.21928994,0.15987885,-0.2646664,0.07248512,0.0631764,-0.037596095,0.09815338,0.23541248,0.014173331,0.05139663,-0.052012853,-0.068873316,0.07763434,0.05105745,-0.20614421,0.0014700538,0.06823755,-0.06984099,-0.1103374,0.13654158,0.15139422,0.20362225,-0.16362998,-0.1372196,-0.3029366,0.02171252,-0.10928237,-0.04641813,0.079915635,-0.16948792,-0.06394544,0.14808027,-0.00032529185,-0.14604844,0.12288301,0.061867423,0.0013127043,-0.13464329,0.17085855,0.088243805,-0.15098882,-0.09743306,-0.0078139715,0.09874318,-0.056315616
movie_1018,0.1090138,-0.02488211,-0.13498689,0.16332787,-0.2411984,0.2418528,0.07158159,0.014184304,0.08823694,-0.052604377,0.06256457,0.17197777,0.09335904,-0.015340338,0.17881235,-0.08133522,0.10768143,-0.19740075,0.0792906,-0.18268281,-0.052978367,-0.13866913,0.028466191,-0.23335601,-0.12879632,-0.08385186,0.009101104,0.18475862,0.0975804,-0.0010190059,-0.0017184305,-0.13804916,0.030486053,0.017682977,0.09702012,0.04829152,-0.0015662612,-0.17256878,-0.1880245,-0.0840103,-0.13494244,0.07521773,-0.05927169,-0.24205665,-0.16182299,-0.051800694,-0.13334076,-0.08381002,-0.123748414,-0.042725034,0.1870223,-0.31110594,0.17767265,-0.021651613,-0.0074168434,-0.0675492,0.10037217,0.0805725,0.055005908,-0.074725255,-0.15209587,-0.04891907,-0.07044154,-0.095013395
movie_1019,0.14012666,-0.14281508,0.07527151,-0.035980754,0.16327439,0.1015488,-0.17202096,-0.0744272,0.13711837,-0.09919547,-0.005228839,-0.0064633763,-0.026213907,0.09782565,0.249063,-0.0251111,-0.047177635,0.07131497,0.03628649,0.2579237,-0.12283637,-0.11405103,0.05329714,0.05739685,-0.10999091,0.13532573,0.13666122,0.022498425,0.16326247,-0.18492453,0.0011747674,-0.02364788,0.18858118,0.00428493,-0.045955647,-0.15089591,0.14228868,-0.16367248,-0.24003768,-0.06428057,0.15485086,-0.21280232,-0.009366776,-0.098656155,0.08663346,-0.013338228,-0.13134128,-0.12810257,-0.095311984,0.063230716,-0.09493621,-0.102258176,-0.049781885,-0.11670936,0.13476223,0.009758741,-0.31950423,0.037114363,0.06178691,0.15201358,0.15445556,0.19851612,-0.01869046,0.091115795
movie_102,0.1435704,0.01491746,-0.11254704,0.085934445,0.120321065,0.2923133,0.18727772,-0.028310245,-0.11989391,0.17101568,0.08850652,0.10294984,-0.044197187,0.003351804,-0.06049477,0.16834494,0.25346813,-0.1082571,-0.026312565,0.102984525,-0.0055738124,0.12693559,0.33618137,-0.1297135,0.1106759,-0.073702134,-0.15813707,0.10649514,-0.10486964,-0.107496314,-0.0541668,-0.044020064,-0.037505403,0.10430242,0.116721034,-0.029949361,0.03525878,-0.19348301,-0.08575351,-0.21385299,0.085652985,0.18858068,0.020793814,0.05074666,-0.025936814,-0.13451958,0.011698333,-0.1854514,0.0846183,0.13172168,0.10897283,-0.039005876,-0.18281245,-0.009877219,0.12867163,0.036573347,-0.055817354,0.1588984,-0.009413753,0.054147042,-0.13897055,0.15232295,-0.079507075,0.15898152
movie_1020,0.20860551,-0.05434553,-0.094235055,-0.144806,0.1602509,0.0017122903,-0.02363534,-0.10309925,-0.19171774,-0.11946689,-0.021872854,-0.07499257,0.16740276,0.10889497,-0.10407228,-0.14618851,-0.16085519,0.063668005,-0.09881232,-0.12092204,-0.23680036,-0.20865847,0.09463976,-0.0445926,-0.018302806,-0.188647,0.12233443,-0.1179147,0.018334398,-0.057230167,-0.13925628,-0.07032703,0.09852855,0.218175,-0.17566659,0.2113027,-0.080954745,0.118581176,0.13798699,-0.0109333955,0.114005245,0.16164519,-0.0062403223,-0.105252825,-0.08865305,0.16394524,0.05583034,0.021206005,0.2903611,-0.07820847,-0.15182778,-0.048062526,0.24552876,0.020164598,0.1611905,0.0706849,-0.007254829,-0.014989953,-0.023251526,-0.062252786,-0.078014135,0.03659925,0.0012068192,-0.13879922
movie_1021,-0.14730473,-0.07599483,-0.06357075,0.039650224,-0.12061093,0.08890086,-0.001321773,0.095638886,-0.0815375,0.014424172,-0.02115576,0.1476575,0.035365198,-0.09576158,0.09206625,0.11164488,0.16280304,0.016932176,0.15850721,-0.1137414,0.044198852,-0.23003754,0.16005759,-0.03240685,-0.17865427,-0.072996244,-0.10485348,-0.113750756,0.18815684,-0.27760428,0.111482896,-0.01732628,-0.0095313145,0.15084077,0.19955623,-0.11668056,0.053380884,-0.2255113,0.0012391666,0.1846465,-0.04045144,0.18358098,-0.1370098,-0.10716773,-0.121472016,-0.08852103,-0.025853807,0.12095498,0.07509854,0.0889784,0.012746077,-0.16512142,-0.1813789,-0.034714833,0.16193798,0.18322153,-0.18603402,-0.17250212,-0.0490472,-0.12862739,-0.013808445,-0.11936341,-0.1293811,-0.15854143
movie_1022,-0.16796231,0.24363844,0.021274578,0.09783349,-0.08129315,-0.034096148,0.04586861,-0.057281565,0.01139664,-0.16278501,0.1100511,0.08233174,0.054266807,0.1270944,-0.10463715,0.075298436,-0.014711324,0.09031395,-0.27678505,0.12922363,-0.11578306,0.08729802,-0.10130095,-0.10432753,-0.064778,-0.08016654,0.054098886,0.13946693,0.21188535,-0.31036434,-0.021012127,-0.08131636,-0.115745895,0.3277478,-0.07924383,0.063736916,0.120249495,0.12678401,-0.03988545,-0.120056115,0.1527149,0.063412994,-0.10649355,0.012142799,0.0414784,-0.10383222,0.044350915,0.10295639,-0.06352803,-0.12534374,0.11988171,-0.10588064,-0.059523378,0.27201727,-0.009112218,0.00062017684,-0.24471225,0.019799652,-0.025466736,0.15059198,0.018008001,-0.011593937,-0.15081207,0.10738847
movie_1023,-0.19150858,-0.025307294,-0.15546061,0.1752327,-0.03231406,-0.03336381,-0.06790095,0.11575323,0.04195172,-0.1624352,-0.106058136,0.071212485,0.10468054,0.104410924,-0.08255822,-0.15371661,0.11402498,0.005603901,-0.21948561,0.22085732,-0.10543141,-0.11606127,-0.06203935,0.12426574,0.24593215,0.09788999,-0.055903513,0.03099359,0.051129624,0.034851164,-0.14498965,-0.035406828,0.24349052,0.17866087,-0.008682202,-0.06725215,0.09861268,0.28782618,0.0049509145,-0.08461137,0.008369303,-0.13150062,0.105755515,0.027441328,0.047967177,0.25794223,-0.079824015,-0.037289187,0.13085586,-0.012888451,-0.05410714,-0.17731263,0.23173691,0.16477646,-0.054523863,-0.13971093,0.11795956,-0.06820079,-0.09306264,-0.13412243,0.019415965,-0.17046839,0.046306312,-0.059195396
movie_1024,0.2000042,-0.10057252,-0.028888928,-0.07629481,-0.33155292,0.08708892,-0.08893011,-0.19846258,-0.021592956,-0.05741082,0.1553486,-0.012498354,0.08454437,0.13373297,0.26774663,0.14220358,0.029093394,0.019814763,-0.17227647,0.040783055,-0.08810924,-0.08193594,0.18452102,-0.25529736,-0.008140781,0.15493223,0.17697535,-0.005025007,-0.075427964,-0.2286637,0.14990073,-0.12956533,-0.18815632,-0.0864392,0.056718513,-0.049138483,0.04044943,0.026804717,-0.11056026,-0.0033544006,-0.09171234,0.048034433,-0.07794013,-0.23987699,0.012672192,-0.020652965,-0.12410779,-0.012387404,-0.009019059,-0.09904853,0.04274111,-0.01687864,0.11404412,0.075419046,-0.15231258,-0.18800929,0.08529456,-0.056567296,0.07028558,-0.13145323,-0.060206395,0.14934403,0.04368416,-0.17647788
movie_1025,0.16848394,0.16374007,0.1024585,0.16832897,0.018818837,0.08610922,0.21965267,-0.18339595,0.061099745,0.020315269,0.030935926,0.11485574,-0.04104196,-0.10821513,0.22000153,0.06892162,-0.13185064,-0.124644905,-0.30060664,-0.14866732,0.07219989,0.13281247,0.050174356,0.07041509,0.0066199964,0.1246654,-0.09400699,0.13412473,-0.16731964,-0.216796,-0.17926924,-0.041866556,0.114559196,-0.001733725,0.11585645,0.10619949,0.098648325,-0.107494496,-0.06290223,-0.016302807,0.07028198,0.11968854,0.012766461,0.10995385,-0.06104127,0.06455095,0.10308223,0.17398956,0.0735735,-0.069756575,0.21807873,0.04912349,-0.073578954,-0.089434035,0.13434574,0.0777016,0.07979039,-0.008570592,0.023298198,-0.01506224,0.043027315,0.07849845,-0.2783599,-0.26526076
movie_1026,0.0108520165,-0.061668184,-0.09550527,-0.03734127,0.021901567,-0.013596497,0.20882788,0.046319906,0.20358367,-0.0218695,-0.14483152,-0.00029911802,0.049355153,0.11122312,0.23638657,0.15561913,-0.06707639,-0.24159135,-0.17449784,-0.16248314,0.05870193,0.15711823,0.008129142,-0.19003996,-0.015847065,0.042303532,-0.009781994,-0.0498917,0.15826209,-0.16688278,0.033672594,-0.037930734,-0.030984262,0.18504179,-0.0999992,0.17852952,0.20197423,-0.024691353,0.02688721,-0.20410448,-0.061076544,-0.011055831,0.09004823,-0.026321841,-0.07284676,-0.14119884,0.11518518,-0.020906562,-0.007307311,-0.11981646,0.18422645,0.07386642,0.22949453,0.07678006,-0.26211202,0.073388025,0.0938622,0.1919939,0.078403994,0.13357113,-0.11484912,-0.034779068,-0.18660985,0.1393442
movie_1027,-0.023693046,0.14272146,-0.17914745,0.11285534,-0.005428198,0.073784,0.2615707,-0.011047542,0.009470739,-0.14806859,-0.17041093,-0.10256843,-0.03462677,0.01909926,0.05358907,-0.032720365,0.086499326,-0.06846365,-0.1722729,0.15735017,0.11491952,-0.12644084,0.07585228,0.048519168,-0.15143111,-0.23181386,0.071364194,0.1998177,-0.14144488,0.20043789,0.063280985,-0.009458293,0.14462815,-0.15278879,-0.10561682,0.11219388,0.022394797,0.12959209,0.08262027,0.093407236,0.06425921,-0.21766075,-0.026678663,-0.02904853,0.04710494,-0.03232056,-0.1936808,-0.18070671,0.065544054,-0.10138488,-0.124744214,-0.20868209,0.23494865,0.05877094,-0.10602105,0.031298984,0.1725524,-0.10883737,-0.07109988,-0.1472824,0.18981168,0.026924543,0.1572836,-0.038867988
movie_1028,0.013882958,-0.137178,-0.039805923,0.06777423,-0.15287225,-0.052426983,0.17017649,-0.021020036,0.019379957,0.055764813,0.13505486,-0.17611104,-0.13005413,0.19172528,-0.17361331,0.19221857,0.01128519,-0.12191358,-0.122601435,0.08149075,0.07680812,0.0015227685,0.08788378,-0.2760052,0.32568923,-0.13476665,0.20227179,-0.007562433,-0.043278728,0.05215824,-0.17659445,-0.004089069,0.10829524,0.062052555,0.12774038,-0.13123523,0.050196238,-0.09638211,0.109038934,-0.052101295,0.08391776,0.00039392174,-0.014312455,0.03464165,-0.0015674667,-0.0059325374,0.06642281,0.25317162,0.11584776,0.034668736,0.19432807,0.069078855,0.17053099,0.1947742,-0.0045469226,0.13386837,0.016831635,-0.083654016,-0.12161503,0.17722093,-0.014060331,0.07155289,-0.08214033,-0.24111184
movie_1029,0.20243831,-0.07044889,0.014073049,0.19098783,0.18628748,0.15791449,0.10722232,-0.15470965,0.08377639,0.108062215,-0.019406434,0.123440124,-0.13612407,-0.16007434,-0.13292828,-0.18324676,0.2835767,-0.08757158,-0.16851856,-0.06674959,-0.13696395,-0.18594113,0.01511645,-0.0568713,0.10308926,-0.0075323647,0.15878913,-0.03552645,0.12973033,-0.020794619,0.19486202,-0.118576914,0.059060216,-0.044439428,0.15235254,0.09209576,0.02045409,-0.106642224,0.05633195,0.071632765,0.086921975,-0.030773789,0.04698526,0.13586012,0.100969166,0.1608011,0.10089591,0.111608766,0.11531045,0.2394877,0.03686748,0.13692501,0.24589737,0.16644815,0.01450227,-0.093934685,0.042024817,0.013777077,-0.019730264,-0.23880425,0.10283622,-0.06944866,-0.0007441116,-0.023777684
movie_103,0.08792979,-0.058492407,-0.13700995,0.13326998,0.005978639,-0.04304406,-0.19491604,-0.14712186,0.0035758389,0.15995753,0.07843395,-0.013055612,-0.057147168,0.15208107,-0.09724529,-0.04936444,0.123178504,0.030951316,0.074635945,-0.15980197,-0.008897072,0.081208326,0.011214043,0.0997617,0.19327329,0.07585847,-0.031469483,-0.011748892,0.062582426,-0.09661443,-0.13180217,-0.22229521,0.022477731,-0.13227239,0.25797018,-0.25646943,-0.07933607,0.07927815,-0.028403943,0.17043707,0.09576845,0.17416951,-0.034426305,-0.109425046,-0.03297942,0.06155373,0.15493146,0.24357244,0.17141333,-0.120816275,0.12071457,0.14105101,0.22774109,-0.12003758,-0.09105366,-0.050732028,-0.051293895,-0.17685923,0.0051394,0.16055773,0.050670154,0.08016076,-0.08617268,-0.25876376
movie_1030,0.052285597,-0.19168746,-0.051685706,0.084140405,0.026074383,-5.6517692e-05,-0.044962656,-0.07429409,0.17452769,0.23458037,0.19822882,-0.05285054,-0.10066714,0.11342114,-0.15118659,0.037288994,-0.10944811,0.17569152,0.16846007,0.26352316,-0.13865267,0.024441559,0.16152692,-0.14141737,-0.09512901,-0.115187824,0.07252837,0.14603043,0.056542855,-0.008878549,-0.081482165,-0.020328745,0.15148897,-0.010216387,0.013916719,0.09229414,0.14705516,-0.18958832,-0.15503539,0.13668801,-0.016757315,-0.09500961,0.01642922,-0.085788615,-0.290782,-0.14435966,-0.16735344,0.12433138,-0.09286329,-0.10182348,-0.06943316,0.108146414,-0.17487174,0.028868223,-0.15057187,-0.19522361,-0.108969554,-0.019969227,-0.16105574,-0.09313574,0.09075064,-0.13176641,-0.061334692,-0.010620324
movie_1031,0.18919723,-0.012437052,0.14645113,-0.1533412,0.14173466,-0.21124364,-0.09905543,-0.1748204,0.036671415,-0.09412552,-0.13049093,-0.051478174,0.07021876,0.07894813,0.2872164,0.057237685,-0.16390125,-0.24993385,0.07253177,0.12815274,0.0014578333,0.1718787,0.08427344,0.19749007,0.06007045,0.056358743,-0.027227314,0.06877762,0.036081504,-0.17828505,0.13897626,-0.10103477,-0.21105188,0.08097779,0.22189789,-0.11518712,-0.10322571,-0.050222468,-0.033586655,0.1442114,0.06312934,0.1759765,0.11758089,-0.1307625,0.016543182,-0.096374124,0.09363953,0.15691946,0.10763809,-0.10753553,-0.07798686,-0.092443526,0.011211462,0.09139635,0.062213503,0.12559842,0.1497396,0.05076743,0.06571714,-0.021166977,0.06430972,-0.17482397,0.19195679,0.030023532
movie_1032,-0.16765168,0.08675036,-0.14384337,0.22737145,-0.17315085,0.12779006,0.121602684,0.0494196,-0.016863668,0.06809499,-0.030547773,-0.042223793,0.1412204,-0.08313621,-0.20447704,0.06067215,0.20985745,0.20148724,-0.040097333,0.040524267,0.04230898,0.18040742,0.09722999,0.109821096,0.11985081,-0.09900372,-0.1353439,-0.1376282,0.15398327,-0.11529727,-0.073522866,0.08966914,-0.117847666,0.14692351,0.22079694,-0.091892794,0.13034977,-0.09755707,0.05063542,0.12776065,-0.07905584,-0.17891523,0.051075045,0.043490887,0.048874505,-0.07699772,0.059784763,0.0012545292,0.04076497,0.069089994,0.06404373,-0.13347001,0.28062063,0.017253647,-0.18621981,-0.15911879,0.17267035,-0.059283722,-0.08230607,0.14281756,-0.033625033,0.2526176,-0.06771196,-0.051910043
movie_1033,0.029263226,0.09998463,-0.16414894,-0.00816995,-0.23992129,0.20049065,0.19276363,-0.2412077,0.08499364,0.11837738,-0.16977021,-0.0020820578,-0.11086983,0.063400105,-0.040352166,-0.009242984,0.06267988,0.03645405,0.1739534,-0.1562014,-0.1071008,-0.14876898,-0.13111335,-0.054620713,0.029291455,0.12416351,0.14567034,0.08466583,-0.10120473,-0.18092826,-0.19653735,0.14656857,0.010433202,0.13725853,0.17516589,0.006174852,-0.06524114,-0.024474729,-0.01883636,-0.007843332,0.15395682,-0.3197336,0.15043703,-0.08340344,-0.14166892,-0.0337755,0.17332014,0.16826893,-0.0640572,-0.053978603,-0.16349155,0.19898069,0.122250736,-0.10101317,-0.015162221,-0.015517153,0.032469667,0.12481908,0.09819928,0.044666156,-0.020074358,-0.14649917,-0.018335434,-0.0068133716
movie_1034,0.2572868,0.016221188,-0.042808697,0.20029889,0.025669165,0.19626978,0.096731454,-0.113017224,-0.12057661,-0.11606529,0.06385272,-0.156535,0.14787541,0.013322599,-0.17468579,0.16546798,0.2710057,-0.12575594,0.112427644,-0.061437342,0.02147381,-0.031800464,-0.020721357,0.10624889,0.22972775,-0.071053095,0.02715256,0.14888094,0.069288164,0.18809438,0.16344018,0.11775381,-0.023379244,0.026663758,0.14596158,0.12336612,0.12503034,-0.03449661,-0.14822419,0.08103436,0.10910601,0.07430449,-0.1124251,0.1475789,-0.0012012353,0.28340948,-0.07008103,0.09184363,-0.0057633533,-0.10429828,0.22939518,0.08666644,-0.10909091,0.054786842,-0.04891899,-0.15545228,0.10079266,-0.0056316946,-0.0034750071,0.14289771,-0.17092134,-0.0021923091,-0.095391124,0.057430048
movie_1035,0.15125242,0.06526056,0.18185759,0.11643897,0.15815747,0.10685295,0.19993202,-0.14038567,-0.14071566,0.11137498,-0.12598859,-0.042396713,0.14418536,0.13312583,-0.06588931,-0.05839016,-0.10790056,0.0996048,0.0017598978,-0.10839814,0.018427072,0.14919248,0.104186706,0.09323709,0.1696113,0.009780749,-0.163382,-0.12560475,0.085744336,-0.056965172,-0.07149747,0.023387045,0.092242144,-0.16685943,0.088571854,0.032798965,-0.1410583,0.36508426,-0.2423072,0.1529116,0.09654328,-0.11122784,-0.063800596,0.0022233208,-0.14179671,0.19883429,-0.06250141,-0.14444293,0.111744046,-0.0678817,-0.14257903,-0.08204778,0.019526225,0.11163889,0.17514582,-0.13646618,-0.0468714,-0.17636952,0.02062423,0.097818434,0.14147578,0.06099324,0.07902813,-0.024975337
movie_1036,-0.18608317,0.055527076,0.103075154,0.22639953,-0.0963553,-0.17202802,0.16996858,-0.10064912,0.15106976,0.22789596,-0.08479915,0.2903511,0.16417192,0.0774757,0.12541552,0.26760182,-0.07833199,-0.04576043,0.197378,-0.023633296,-0.028291287,0.15203401,0.15344547,-0.063659005,0.1375951,0.11142291,-0.02400412,-0.12717752,-0.13205881,-0.08966052,0.13293147,-0.01808068,0.07629094,-0.04982224,0.022746855,0.07214882,-0.219216,0.113301374,0.111942105,0.041036543,0.09939817,0.15565497,-0.07366641,0.077233896,0.1410892,0.24681227,0.08990787,0.0821247,-0.054678213,0.110735044,0.14916438,-0.060459677,0.052740935,-0.17314631,-0.009053992,-0.030829018,0.004906715,0.0011753931,0.087010905,0.041709755,-0.10034046,0.13658503,0.029705428,0.030868871
movie_1037,-0.004144698,0.09678752,0.17250228,0.14842,-0.016989069,-0.03452081,0.008289605,-0.27139434,-0.14336061,0.029391753,-0.0055032237,-0.08838222,0.073410854,-0.034911387,0.050488535,-0.09250896,0.08300743,-0.0030606927,0.15016414,0.03202218,-0.08255186,-0.112270854,0.20256412,-0.029868953,0.059124235,0.032755777,0.19594647,0.06380114,0.17552455,0.045893576,-0.1259452,-0.2718435,0.071995854,-0.17703107,-0.13457711,0.0050736107,0.1276246,0.25542438,0.07783296,-0.1455311,-0.009409177,-0.03940159,0.06402999,0.09866782,-0.1708581,0.0032073124,0.20951842,-0.0570322,0.14811711,-0.010373869,0.01569367,-0.1029757,0.06557676,0.014758292,0.25062147,-0.10872953,0.13266759,-0.09661971,-0.14478567,0.23142911,-0.0412163,-0.20020673,0.11992422,0.1737754
movie_1038,-0.09686666,0.025651908,0.11108333,0.004493692,0.09535677,0.114658855,-0.08749409,-0.29077178,-0.06223819,0.16979021,0.1695843,0.015764402,-0.2131259,-0.02569962,0.18317409,0.15109949,-0.08797775,-0.18013154,-0.13670926,-0.050195076,-0.17373157,0.072222866,0.106284164,0.089926064,0.025778465,-0.10199417,-0.088705674,-0.14141496,-0.06574533,0.12275209,0.08991388,-0.18177567,0.096255474,-0.121056534,-0.11270934,-0.14576608,-0.023528272,0.1910402,0.00011614493,-0.015465502,0.01850407,0.02738678,-0.09683569,-0.033958636,0.09678168,-0.117872365,0.1016491,-0.0011573666,0.19688681,0.11500045,-0.14088465,-0.070696615,0.18968791,0.0037616363,-0.19044603,-0.21878709,0.11262829,-0.2137812,-0.06375142,0.19824989,0.086119965,0.08197433,0.12254413,-0.12286107
movie_1039,0.04747618,0.2296992,0.10539494,0.15342037,-0.03981058,-0.11830986,0.08377788,-0.16164099,-0.20394515,0.025728768,-0.084436566,0.038118247,-0.24701227,0.1945917,-0.03301266,0.065851316,0.21012886,-0.023388503,-0.18795653,0.07015845,-0.20746289,-0.11403554,-0.14381246,0.13040568,0.048044305,-0.009051872,-0.09532277,0.0035372488,-0.11011914,0.020221833,-0.12845019,-0.24047112,-0.037100513,-0.211683,-0.037117176,-0.06032344,-0.0425763,0.09621805,-0.101758495,0.10190245,-0.06409605,-0.05399387,0.15546101,-0.18885823,0.04449367,0.09437883,-0.25590685,-0.05045181,-0.087192275,-0.0851647,-0.062732525,-0.10567126,-0.035459206,-0.0774213,-0.10227228,-0.086830154,-0.3050402,-0.06676628,-0.08762131,-0.027528927,0.035612646,0.16569732,-0.054805916,0.088093184
movie_104,0.034682263,0.08372115,-0.1528977,-0.10563817,-0.04805192,0.25144342,-0.2173795,-0.08048757,0.0044104108,-0.011862423,-0.009428029,-0.022026626,0.04393727,0.16389503,-0.053178895,0.22664917,0.01707589,0.26388198,-0.02116553,-0.09584621,0.020908704,0.09337693,-0.1688229,0.09381464,0.093124874,0.009777162,0.013539654,-0.047734637,-0.26653242,0.117790915,-0.1329247,-0.05363723,0.112374045,0.24299434,-0.098594286,0.101929456,-0.15841036,-0.121377245,0.12228382,0.09675033,-0.0044529475,-0.0502035,-0.13430768,0.096899934,-0.18232992,0.048464507,-0.18262473,0.03845657,0.120626874,-0.13897221,0.0018525084,0.1847809,-0.17295767,0.07185529,-0.033834334,-0.21845976,-0.014033361,-0.052267656,0.06897554,0.129091,0.20024773,-0.1646745,-0.088615544,0.062109113
movie_1040,0.017193468,-0.12876159,0.17571576,-0.08588661,-0.08972895,-0.1321598,0.22625399,-0.2201518,0.19655412,0.14723063,-0.12950633,-0.08153934,-0.018505936,0.11696154,-0.03187947,0.16592802,0.11594609,0.14584868,-0.16054942,-0.06439714,0.12884365,0.13103102,-0.01772725,0.011727916,-0.07454633,-0.06743498,0.29275265,-0.026632838,-0.104108624,0.058597326,0.08254896,-0.06121664,0.044062596,-0.053022046,-0.09618418,-0.1106512,-0.13522184,-0.05707031,-0.1692067,-0.009538039,-0.14030932,0.041435383,-0.057285815,-0.11389962,-0.20045704,0.025578571,0.009128732,-0.0563813,0.22022204,0.06724104,-0.12627394,-0.070512906,0.010000419,-0.01847991,-0.10714356,-0.16371185,-0.17722937,-0.014299439,0.06311882,0.25265342,-0.06853205,-0.1293051,-0.038456943,-0.28271276
movie_1041,0.23817085,0.1320636,0.1524921,0.14248241,0.086192235,-0.017699514,0.03466434,0.10087755,0.14451185,-0.111485474,0.14575748,0.33490476,0.12873578,0.10987087,0.0053122276,0.045690242,0.19866636,-0.0050199227,-0.051127974,-0.12900808,-0.15640183,0.047684588,-0.043265104,-0.10635182,-0.09988811,-0.091711335,0.008235794,-0.18033937,-0.14113182,0.09018224,-0.021353666,0.048480183,0.08570027,-0.07170331,-0.058676735,0.19145773,-0.07426665,0.123372234,-0.0031440118,0.11609757,-0.079856694,-0.1245712,0.20874147,-0.040574875,0.2085672,-0.049791288,0.1137839,-0.010840134,0.23147912,0.14748408,-0.003897363,-0.037225466,0.012268947,-0.13880251,-0.050828528,0.041424226,0.1622098,-0.1093089,0.09551541,-0.1277855,0.25924653,0.055024765,0.13940825,0.13554132
movie_1042,0.24728584,0.00044913482,0.12132235,0.19757326,-0.12989454,0.2222207,0.2096057,0.109745055,-0.07467825,-0.011012201,0.10481438,0.06532408,-0.112083755,-0.09938285,0.1214093,0.102778666,0.10307214,0.13290827,0.039026614,0.23155306,0.056598935,-0.23103616,0.03634432,-0.11643745,0.09981128,0.074203365,0.13639294,0.04849568,-0.15152653,-0.109492905,0.11277721,-0.15778784,0.10825151,0.031019185,-0.09501454,0.033240955,-0.26098564,-0.11630981,0.08052818,-0.13424473,0.020112863,0.10131449,0.054647204,-0.060612187,-0.25831017,-9.2881506e-05,-0.21417439,-0.10327829,-0.031469475,0.04427284,-0.10325032,-0.2113616,0.0341954,0.12907939,0.005531259,-0.12400522,-0.087365225,-0.17140943,-0.05173045,-0.0827345,-0.1359252,0.053111173,0.036222957,-0.008515153
movie_1043,0.11602933,0.054713134,0.27413237,0.23482394,0.0066124415,-0.05849615,0.14580546,0.06850107,-0.26775995,0.14652726,0.01300068,0.090763666,0.13816722,-0.021395601,-0.08365023,-0.00967891,-0.031978525,0.11932751,0.22143897,0.09863083,-0.170861,0.046170495,-0.055633415,-0.052774493,-0.13184248,0.029402582,0.022820344,0.20897186,0.2133612,0.15805699,0.017696626,0.07722864,-0.1897835,0.02989081,-0.0593843,-0.026640441,-0.09465325,-0.042606402,-0.034897543,0.040260393,-0.11077884,-0.011177894,-0.24189426,0.0659589,-0.095041454,0.22590896,-0.08347673,0.15798213,-0.13293442,0.15918586,0.0141317565,-0.09628639,-0.053708132,-0.13228548,0.007956127,-0.16656661,0.22878213,0.14721505,0.046324626,0.10930136,0.030913226,0.051280003,0.14821105,-0.09394935
movie_1044,-0.22064716,0.043000437,0.1363046,0.1643621,-0.17971066,0.26376715,0.22747622,0.19962782,0.0021531428,-0.08736863,0.09184989,0.076823495,-0.14855324,0.20848103,-0.088158496,0.02571462,-0.18924153,-0.032267705,-0.21546608,0.075362876,0.0030943977,0.14584808,0.11599424,-0.032723334,-0.065954715,-0.07907473,0.112958185,0.08405365,-0.06641508,0.077871144,-0.031966947,-0.20025177,0.09946476,0.14281817,0.0038362436,-0.081020534,-0.050886113,0.2939537,-0.010935574,0.11831169,0.24464437,0.0895848,0.039778907,0.060609166,0.16958779,0.124121174,-0.09696517,-0.0993576,-0.04621036,-0.10029972,-0.09857745,-0.009538181,0.11654707,0.036277905,-0.066486865,0.05654807,0.13337283,-0.055577375,-0.1455918,-0.09490001,0.1610243,0.014355881,-0.093964286,-0.023477117
movie_1045,0.16746803,-0.0077128513,0.09984132,0.08406533,-0.17834036,0.10291595,-0.18073364,-0.25349334,-0.048200507,0.24561179,-0.18339005,0.1352808,0.034273136,-0.042445287,-0.081046805,-0.19352089,-0.09294326,-0.10532407,0.0924194,-0.0035071813,0.010755052,0.037702326,-0.20467116,-0.19277038,-0.120515786,-0.08814864,-0.087736085,0.18068112,0.06711308,-0.04456636,0.030105315,-0.02878796,0.06822955,0.17174233,0.13590036,0.08486402,-0.074488886,-0.071138434,0.040022317,0.27949306,0.038257316,-0.07861238,0.06443937,0.07582754,-0.09119421,-0.020423314,0.20900029,-0.10064428,0.021620307,-0.047937468,0.13012668,-0.16228986,-0.009990583,0.08982189,-0.24331738,0.21845444,0.023548707,0.10000287,-0.12502338,0.051258944,-0.14123662,-0.054057546,-0.08535342,0.15456276
movie_1046,-0.14961204,0.07310024,-0.12607953,0.07993197,0.1759155,0.0762497,0.1522502,-0.1641956,0.22406773,-0.10335999,0.1778384,0.07334516,-0.019816592,0.016483665,0.04483674,0.20436418,0.043939836,-0.11493854,-0.11105234,-0.19110338,-0.18039235,-0.082420245,-0.05505126,-0.12678859,0.16824923,-0.04077196,-0.18811867,-0.22189768,-0.0128452405,0.022046106,-0.06276385,-0.0013543776,0.13585788,0.15947494,0.074362785,0.09847856,-0.107161425,-0.13592741,-0.013740978,-0.23394398,0.026303863,0.11099919,0.21425,0.15459253,-0.13325755,-0.027117651,0.10135096,0.0113657145,0.047684222,0.031054482,-0.16131976,0.059090085,0.12216161,0.05658579,0.16633363,0.14633143,-0.23432422,-0.1432971,-0.06385269,0.0011171818,-0.051970504,0.063673474,-0.16515966,0.099549614
movie_1047,-0.12745118,0.049124174,-0.07478311,0.3315819,-0.09497754,0.016142039,0.11483507,0.10662548,0.1988823,0.10065155,0.15928988,-0.15242858,-0.018758181,-0.0274487,-0.02551125,0.0028844203,0.048441947,-0.022610134,-0.22786802,0.0069363033,-0.38724867,0.0024520908,0.024757266,-0.24118567,-0.09215903,0.0027736477,0.15871292,0.049379986,-0.16792801,-0.09696259,-0.1316471,-0.07432993,0.02603368,0.16766138,0.020028036,-0.108376354,-0.05214557,0.012520209,-0.12030398,-0.0735785,0.04288796,-0.086327,0.19464067,0.010301527,-0.15084232,0.21202923,-0.16590843,0.038384326,0.07104928,-0.09160038,0.10313149,0.14045736,-0.04664614,0.1264356,-0.015124392,0.06472152,-0.11202776,0.029483514,0.0955219,0.05075203,-0.0919908,-0.0698306,-0.23402424,-0.06667081
movie_1048,0.1151452,0.1013438,0.01564812,0.07417543,-0.11405508,0.11803739,0.00678123,-0.23783533,0.068396986,-0.092376605,0.1350408,0.18034868,-0.06929991,0.0743056,-0.047676872,-0.02945068,-0.18545131,-0.19795014,-0.08768138,-0.15699708,-0.2292033,0.051472273,0.0467766,-0.072040506,0.10768495,-0.23904432,0.1234235,0.122633904,0.21948045,-0.039506856,-0.09854946,0.14652583,0.05113059,0.11091134,0.12703127,-0.057508584,0.0346036,0.30499426,0.036955927,-0.055971496,0.05640132,-0.104966,-0.15810388,-0.036438957,0.033110388,0.16680652,-0.0047943606,0.09067942,-0.19148149,0.20733096,0.08543619,0.11344877,0.17294319,0.04042634,-0.015278347,0.124654286,-0.023481615,-0.14087656,0.090252735,0.08369147,-0.10077211,0.1829985,0.035347734,0.1516249
movie_1049,0.056006655,0.08358424,0.06955509,0.039012264,-0.10847936,-0.018691828,0.19558778,-0.10311367,-0.1046676,0.09272861,0.14507884,0.2385978,0.13809064,-0.02706663,-0.12651454,-0.11346444,0.039965745,0.11266136,-0.061869778,-0.14301704,-0.06661119,-0.042796172,-0.05947652,-0.2670723,-0.10213925,0.040695585,0.29692334,-0.0154776545,0.026432294,0.08639506,-0.030370481,0.05848152,0.16935784,-0.0843904,0.2473973,-0.26798484,0.11617982,0.120022126,0.033598475,0.054485176,0.13028698,0.008401469,0.1152062,-0.034925282,-0.25704658,-0.13800861,-0.047887243,-0.118739806,-0.008420415,0.024295427,0.32102278,0.00039513834,0.2559331,-0.031023415,0.056252412,-0.11587081,0.07617981,0.08788714,0.0075276326,-0.059172094,-0.0036712075,-0.072597034,-0.019910984,0.0136516895
movie_105,0.014404167,0.15392894,0.039626967,-0.040419403,0.119207226,0.14697361,-0.05708186,-0.19366153,-0.004992603,2.0204616e-05,0.090162,-0.06213565,-0.28409111,0.17241092,-0.060664635,0.19823122,0.0042074355,-0.059970528,0.055903714,0.010407213,0.11405439,0.021812387,-0.04778632,-0.23462564,0.28714025,-0.22245668,-0.14770482,-0.043807972,-0.16193405,0.031983607,-0.22994487,-0.034749854,0.07888464,0.16819522,0.11027644,-0.02806891,0.103365496,0.14028236,-0.21418883,-0.1157729,0.026135815,-0.040868923,-0.103870615,0.045738358,0.008379612,0.22234918,0.10754535,0.053686507,-0.037176587,-0.0974495,-0.13667706,-0.10823996,-0.057043105,0.021181937,-0.0765347,-0.1586164,-0.14748381,-0.18643633,0.049517687,0.20983332,-0.027881844,-0.06182172,-0.08404872,-0.09635326
movie_1050,0.14486803,0.10699229,0.07525044,-0.052439287,-0.10415306,0.08080593,-0.120201655,-0.16701598,0.05628376,-0.13868067,0.17799973,0.08315892,0.119896665,-0.0068658283,0.0751321,-0.14191534,0.3011042,0.059912715,-0.14460285,-0.03285822,0.04600021,-0.11216881,-0.006245895,0.0056364527,0.079533346,-0.08602989,0.10237763,-0.19665164,0.050378136,-0.13082938,0.09760499,0.106833614,-0.12821382,-0.11720714,0.14207262,-0.28924158,0.05128915,0.01953265,-0.10841818,0.14369926,0.06335084,-0.16704884,-0.15268044,-0.07403819,0.10871447,0.13637865,0.17647347,0.15349424,0.31211233,-0.022497544,0.21596168,-0.033245172,0.04750957,-0.09664461,0.010125907,-0.12221236,0.1122349,0.015797777,-0.0012047372,0.051025696,0.04864566,-0.114213586,-0.15322748,-0.14774427
movie_1051,0.11930984,0.12388692,0.2063363,0.21424946,0.11101649,0.14965345,0.066292204,-0.27618015,0.1561951,0.20896186,0.1675958,-0.10084135,-0.1394331,0.10150282,0.12228233,-0.13237011,0.14069639,-0.27651772,-0.06448644,0.050873198,-0.16093367,-0.0005671881,-0.0033973951,0.11488081,0.0113735385,0.08578198,-0.03655995,0.03618342,-0.11395165,0.1127137,-0.090413325,0.13288087,0.1914115,-0.11989373,-0.104248844,0.05307927,0.13718751,0.061564595,0.08034585,0.029680045,-0.017498337,0.010952097,0.04481205,0.046488725,-0.13001108,-0.02454615,0.0006229444,0.04444224,-0.059490208,-0.06384638,0.09894589,-0.03480893,-0.034376748,-0.06508328,-0.09278151,-0.037061747,0.046426415,-0.24241109,-0.17904848,0.12773272,0.21298951,0.21097715,-0.20574881,-0.0016564805
movie_1052,-0.03965999,0.18218224,0.027986534,0.20112598,0.17513715,-0.13093913,0.1384479,0.15389964,0.114704885,-0.082436875,-0.09537449,0.095517814,0.10030536,-0.032815665,0.14153849,0.14215124,-4.2268097e-05,0.18652628,-0.1755721,-0.009911312,-0.17126587,0.2131448,0.15902425,-0.089468986,-0.06960972,-0.30988115,-0.06459077,0.18422121,0.2141116,0.023797214,0.023591818,-0.05505402,-0.10235221,-0.028293114,-0.06046066,-0.0012777456,0.026315734,0.18009396,-0.081965625,0.031901773,0.18649037,0.06757946,-0.015838485,0.036566574,-0.12847103,0.012298164,0.13497514,-0.024327464,-0.17918505,0.1557955,0.042663258,-0.012074614,0.07209503,0.091287255,0.0034659023,0.2051244,-0.07671213,-0.1536565,-0.1961224,0.092352405,-0.10620856,-0.061675586,0.13198915,-0.16085742
movie_1053,-0.031289615,0.064519234,0.033290386,0.035292476,-0.08100681,-0.014813001,-0.16184567,-0.19810708,-0.08927497,-0.16836187,0.18235461,-0.060348317,-0.14956841,0.23548634,-0.01893863,-0.015775742,0.20353071,0.10993212,0.102474645,0.12421417,-0.22111264,-0.02353879,-0.02792386,-0.12739798,0.07298495,-0.2796893,0.14136806,0.10672716,-0.15880907,0.1073114,-0.05081097,-0.15457387,0.12395966,0.070554264,-0.108418785,0.11653864,0.023249367,-0.030837161,0.08131526,0.13402143,0.13116242,-0.21403754,-0.16534017,0.094177224,0.010889245,-0.21473055,0.06629217,0.17212926,-0.024464533,0.054425362,-0.11840451,0.024305267,0.22899047,-0.12332495,0.049914293,-0.10301967,-0.16040687,0.08783995,0.08433839,0.16923782,-0.056694582,-0.086548,-0.06355948,0.10256935
movie_1054,-0.109486125,-0.040246084,-0.055335104,-0.13247967,0.14535592,0.29179528,0.040327564,0.11104221,-0.13883862,0.098597415,-0.13092656,-0.104447305,0.07807564,-0.13824466,0.008382023,0.21355148,-0.065657824,-0.10896915,-0.081287526,0.017631669,0.08800113,-0.12291878,0.081539966,-0.10708174,0.2643188,-0.13072789,0.18589784,0.041287106,0.22875609,-0.03314389,-0.12262814,-0.059263624,-0.0046113143,0.11827673,0.20238195,0.060892437,0.029429574,0.17276084,-0.06022856,0.07514216,-0.045257483,0.18262924,0.13576262,0.11813668,-0.12546833,-0.15356195,0.033648998,0.11874224,0.117620185,-0.08375218,0.02633609,-0.018692428,-0.056544706,0.09207909,-0.025674548,-0.29606417,-0.13897854,0.037932567,-0.19694886,-0.14982723,-0.064085566,0.051317442,-0.1127485,0.118408926
movie_1055,0.06918101,0.0010642239,0.1024069,-0.14384133,0.0048096785,0.30283123,0.04120203,0.019287463,-0.14254117,0.11527258,-0.09145802,0.14854734,0.052483745,0.027768094,-0.17458983,-0.10294477,-0.074919365,-0.19592163,0.06891098,-0.18076833,-0.02955668,0.11979429,0.10672433,-0.15133476,0.07002575,0.15373813,-0.028005952,-0.19506383,-0.18284363,-0.024361122,0.06626521,-0.23690625,-0.035853382,0.049485467,-0.085594684,0.23507176,0.10514772,0.046215493,0.13760705,0.06593972,0.01097548,0.12654042,0.07345776,0.1000144,-0.0714525,0.058556087,0.16665712,0.05266106,0.13308139,-0.06886204,0.14144212,-0.14484248,0.20322329,-0.05542707,-0.21150923,0.20711938,0.0005279334,0.11974265,-0.12870923,0.1568483,-0.11827121,-0.059672244,-0.08374598,0.14077656
movie_1056,0.1488074,-0.049088355,-0.10419577,-0.09924866,-0.1872555,0.07053585,0.10354603,0.06571346,-0.078181885,-0.0049123326,0.058865014,-0.15745029,0.15185705,0.1551158,0.005657117,-0.03365727,0.086440705,-0.04821227,-0.08377604,-0.15156782,-0.20182528,-0.08112011,0.0675552,0.07955231,0.11271619,-0.20727822,-0.19437443,-0.2550446,0.20263544,-0.15077026,0.019776337,-0.076456435,-0.12294534,0.19605216,-0.015129919,-0.03250375,-0.033275455,0.115031414,-0.03295168,-0.18558139,-0.017139725,0.1753477,-0.025658026,-0.18353757,0.21647109,-0.05243376,-0.06901391,0.22646964,0.034289677,-0.030526858,0.03492228,0.14632761,0.04608594,-0.17220451,0.14636171,0.21501674,0.114964135,0.085256524,-0.06997113,-0.088862106,0.19851245,-0.07718713,0.02796779,-0.10542517
movie_1057,0.09241184,-0.038081676,0.20787019,0.21515161,0.033657562,-0.002187765,0.072136976,0.042180553,-0.11504866,0.021342099,0.21409929,-0.086614355,-0.21805584,-0.002230171,-0.05152281,-0.026262147,0.08988198,-0.21639776,-0.13564844,0.19631612,-0.04733083,-0.1777361,0.008505089,-0.045868438,0.16091233,-0.013643828,0.10984165,0.16928077,0.017179413,-0.05098943,-0.2786335,0.0006785779,-0.10124107,0.09055737,-0.122117,0.12988159,-0.02957577,0.03973409,0.02233008,-0.16153449,-0.14727111,0.18372464,-0.016653268,0.13200769,-0.05112817,-0.029263692,-0.15456241,0.16884185,0.1319028,-0.1357202,-0.1608554,-0.053769656,0.17741452,0.046085764,0.0659591,-0.044396695,-0.05597734,0.12664346,0.10240117,0.22614455,-0.00014251197,0.031613633,-0.13305825,-0.25878978
movie_1058,-0.034170393,-0.096684575,0.12934805,-0.12423257,-0.2156267,0.08321648,0.31260553,0.13496289,0.03625909,-0.04315079,0.23299445,-0.090323105,-0.19341816,-0.20551033,0.042367443,-0.08172728,-0.02084504,-0.007991557,-0.061778206,-0.09047549,0.017276965,0.021338828,0.103732,0.035673898,-0.1354364,-0.21465962,0.029474963,-0.017233184,0.14965706,-0.17453258,0.21622942,-0.24057388,-0.03316949,-0.085718445,-0.056195986,-0.17572989,0.11012819,-0.1243254,0.09596313,0.08105593,0.009226618,0.11925742,-0.13979559,0.031674005,-0.061988045,-0.025088252,-0.021156248,0.0767602,0.11921885,0.007461756,-0.01864488,-0.20832168,-0.15554455,-0.059795137,0.15662177,-0.14900456,-0.12947717,0.046692614,-0.11517671,-0.21590166,0.09880425,0.11820729,0.09844647,-0.09784578
movie_1059,0.067828104,0.15212613,-0.06352232,0.0065260073,0.094321355,0.052369386,-0.0019614042,-0.016509762,0.28023896,-0.035636555,-0.015931595,0.09367768,0.015625717,0.2353817,-0.058611035,0.17539027,-0.006887981,-0.16782197,0.023010729,0.14773831,-0.13621747,0.023426851,0.011746878,-0.1808946,-0.1452663,0.085742764,0.14059046,-0.011977795,-0.16501622,0.111740015,0.1013477,0.06853201,-0.11454547,0.12004074,0.24983612,0.040225316,0.09261228,-0.1375507,-0.053996067,0.11254371,0.0696655,-0.08523368,0.010861794,-0.25573522,0.15988605,-0.01365529,-0.17767784,-0.106933035,0.021229345,-0.14078629,0.09296973,0.10766669,0.20321985,-0.10152239,-0.12122312,-0.05969227,-0.10800683,0.026550967,-0.31570885,0.12430197,-0.18445493,-0.08862247,0.10593072,0.0024782757
movie_106,-0.124153495,0.11606023,0.15350418,0.047242682,-0.091243155,-0.12750936,-0.16990931,-0.16447492,-0.031486586,0.180725,0.16903068,0.20977013,0.0011984658,0.1419846,-0.041362915,0.20098422,-0.055739336,0.08170039,-0.002119505,-0.010510801,0.08148703,0.073578894,0.16120787,-0.024657356,0.12672207,0.066078596,-0.06658306,0.09908979,-0.0692485,0.103460915,-0.29789752,-0.074544266,-0.0009980453,0.16206622,-0.14662653,-0.009773441,0.10569099,0.11432425,0.0528448,-0.073981114,0.18054628,-0.038189657,0.009492951,-0.11240351,-0.19713135,0.114455044,0.17673609,0.21388258,0.06204065,0.08782845,0.25949746,-0.04731742,0.03568623,-0.07857109,-0.16846202,-0.0047339625,-0.17450282,-0.09127817,-0.18617316,-0.023907213,-0.05402141,-0.07480988,-0.17770419,-0.12692542
movie_1060,0.05916487,-0.041911732,-0.13808148,-0.022083072,-0.10285757,0.03707523,0.15708336,-0.08094509,0.09524681,-0.002757453,0.23812458,-0.07918663,0.13420048,0.14518644,-0.1466479,0.11197927,-0.011870069,-0.18353292,0.11903296,0.19285491,0.022575129,0.03013703,-0.027130755,0.1227995,0.2508069,-0.025503457,0.084739864,-0.0445048,-0.050366934,-0.21817414,0.099703275,-0.11920863,-0.0060147154,-0.07485685,0.15768681,-0.055943508,0.17193656,0.106133714,-0.060321353,-0.0019491694,-0.11428621,0.0030703673,-0.03190757,-0.18228117,-0.028063066,0.27601233,-0.0011881442,0.20768075,-0.09342058,-0.13412699,0.0057935766,-0.124438584,0.014817035,-0.16093794,-0.2091846,0.18730886,-0.25577536,0.019536072,0.03310596,0.09905544,-0.10622019,-0.15935002,-0.08889762,-0.15292189
movie_1061,0.11824739,-0.0679716,0.07387626,0.0558726,-0.029004935,0.051111218,-0.07508262,-0.09141331,0.27018005,0.02818653,-0.08679502,0.16668916,-0.16834721,0.39067054,-0.189912,0.101893835,0.16486482,0.048146024,-0.050172232,0.022766756,0.07623732,-0.11219648,-0.13813224,0.11829607,0.27517062,-0.12205312,0.17316453,0.025149114,-0.21083677,-0.039012924,-0.18428428,-0.08505223,-0.1430361,0.097136565,-0.13579637,0.13303481,0.05320945,-0.08522344,-0.08813492,-0.08336592,0.14037159,0.121538125,-0.024337597,-0.00472288,0.035218813,0.13504513,-0.019952208,0.27977908,-0.045707896,-0.03053616,-0.02246368,0.035656318,-0.15876393,0.016514039,0.026836218,0.012978875,0.16236429,0.105943605,0.004881498,-0.032800373,-0.096758716,0.057161786,0.10537579,0.09360901
movie_1062,0.065933615,-0.0012440461,0.09310219,-0.10990495,0.0791094,0.102580234,0.16508144,-0.12707101,-0.18572386,0.08388294,0.073054716,-0.12807329,0.15757115,0.0045075985,-0.18472864,0.20591049,-0.035907064,-0.09759005,-0.18587472,-0.13649839,0.07600219,0.01781914,0.014658579,-0.20206767,-0.10566754,0.04988471,-0.047439996,0.18918234,-0.08842287,-0.12061995,0.12675886,0.12871592,-0.0118875485,0.104358934,-0.11869667,0.14892764,-0.26036102,0.0700108,-0.12344919,0.05455629,0.14147234,0.11329478,0.06019774,-0.20418473,-0.26165256,-0.030424261,0.1456016,0.18746507,0.12517442,-0.060701445,0.03230112,-0.13618346,0.12689343,-0.025884042,0.122976236,0.1378559,0.08643822,0.14988247,-0.20225367,-0.12938468,0.02445595,0.050192732,0.09325188,0.030151566
movie_1063,-0.04797692,-0.17924716,0.13797083,0.059316777,0.082059324,0.07849891,0.0892297,-0.07919943,-0.11616949,0.2403133,0.087849185,0.085813954,0.013342781,-0.10564674,0.055016804,-0.10610839,-0.099980846,-0.068304144,-0.015558554,0.08590549,-0.19694544,-0.042910308,0.11094285,0.15291722,-0.038251527,0.020776527,0.19615537,-0.07099647,-0.077838026,0.09235142,-0.18449083,-0.054286137,0.10506969,-0.11662447,0.3549574,-0.19500387,-0.2884262,0.08899593,-0.0192114,0.1847028,-0.04421334,-0.08914711,-0.09200393,0.15733318,-0.1631754,0.10595407,0.1362538,-0.09927603,0.009692163,-0.0022927423,-0.13666236,-0.026586924,0.17049052,-0.10383575,-0.05037156,-0.066990055,0.0625793,0.15199837,-0.06422308,0.10574232,0.15195476,0.18300776,-0.015922282,0.13847606
movie_1064,0.06755761,-0.10411193,-0.1655733,0.0783928,0.008749092,0.09044162,0.09201244,0.19117787,0.114993155,0.03242944,0.18186763,0.12678178,0.136493,-0.079296164,0.034055054,0.11737356,-0.12928578,-0.16148213,0.08142982,-0.049495466,-0.11989026,-0.015679369,0.16793373,0.033722125,-0.0043531028,-0.0008260513,-0.091610014,-0.28801498,0.24812369,-0.24767126,-0.08075169,-0.24312675,0.020837452,-0.010363782,0.22330903,0.10862543,0.22252068,-0.04275703,-0.022658838,0.058614112,0.028227566,0.027548263,0.015206798,0.13715987,-0.035606306,-0.09401901,0.041833322,0.17963386,0.10598869,0.08666915,-0.1499569,0.08270773,-0.19578993,0.0023973347,0.2341771,-0.15537679,0.12680075,0.12889944,0.10060131,-0.054004647,-0.038475167,0.04156208,0.13754149,0.05725517
movie_1065,0.06667277,0.16001588,0.10783721,0.072888784,-0.08560643,0.06279227,0.0961338,0.10392091,-0.041798443,0.16804212,-0.013255119,0.24204181,0.10596498,-0.12683938,-0.08533528,-0.09910194,0.08427545,-0.21920197,0.024319137,0.11192916,-0.07933856,0.082467705,0.15170035,-0.13920797,0.0928008,-0.23141646,0.13439773,-0.100085184,-0.14577822,-0.09929977,0.006690719,-0.1718947,-0.14178286,0.07718778,0.1708525,-0.08740054,-0.19601317,-0.13114402,-0.15910144,0.30149645,-0.090398826,0.12982054,-0.020501653,-0.12214654,0.11219863,-0.086883,-0.08981274,-0.09559314,0.10196387,0.06337882,-0.014653159,-0.08886244,-0.011613073,0.18948519,0.14638707,0.06748193,0.16147166,-0.22545159,0.052061018,-0.035498776,0.05450581,-0.11886021,0.12834898,0.048994657
movie_1066,-0.02323911,0.20704706,0.106832415,-0.14652373,-0.11122885,0.20775248,0.2645836,0.093955114,0.0521428,-0.115526505,-0.19328213,0.093816645,0.024766963,0.013075999,0.17771481,-0.04332932,0.044629984,-0.10316144,-0.11852113,0.118951775,-0.11040032,-0.0076971743,-0.001838385,-0.13005598,-0.11478203,-0.14860915,0.070621215,-0.020425478,-0.06736085,-0.05431331,-0.033052187,-0.18935594,-0.0936647,-0.05846941,0.09938578,0.10808318,-0.18289988,-0.23208304,-0.08742855,-0.21243586,-0.097613305,-0.13426282,-0.1720828,-0.15132628,-0.14001112,0.06440055,-0.15940687,-0.13080673,0.0060325717,-0.22923486,-0.052311197,0.058806255,0.27776143,0.1732711,-0.069394775,0.03863475,-0.03843301,0.14971909,-0.008944268,-0.0031919028,-0.058745213,0.0074402764,-0.010580498,-0.13318369
movie_1067,-0.06418921,-0.11570849,-0.11386563,-0.12624864,0.016163955,0.078874424,0.0017131154,0.04765399,0.12880258,0.08881934,0.06302113,0.24253732,0.18360636,0.035535004,-0.22735566,0.1434226,0.055054247,-0.058776937,-0.13088365,-0.05454435,-0.1258683,-0.16460223,0.10040185,0.026617087,-0.009782685,-0.06857763,0.24721728,0.22754744,0.074361004,-0.027811259,-0.06359641,-0.29343826,0.025668373,0.01285513,-0.052693643,0.20126352,-0.28467473,0.029739179,-0.09446656,-0.08384067,0.08446359,-0.053175785,-0.07411439,0.0407051,-0.16884176,0.10491663,0.06152836,0.18224159,-0.124483995,0.054853737,-0.13975258,0.0120319165,0.18248221,0.0914446,0.13628703,-0.08255705,-0.0871865,-0.24641153,0.1468456,0.11470594,-0.083292186,-0.06628519,-0.025065826,0.003893394
movie_1068,0.14185546,0.08484149,-0.1298381,0.032295533,0.16084918,0.159816,0.122861974,-0.13621634,-0.042045377,-0.07542855,-0.14770642,0.1562343,0.022110749,-0.1117404,0.10668898,0.17061646,-0.14854161,0.1625216,-0.0019221094,0.11621224,-0.3335776,0.004904051,0.04812401,-0.088756256,-0.10798023,0.173586,0.16518557,0.18312296,-0.11497131,-0.04093953,0.050402876,-0.034714703,0.03622675,0.065533176,0.03616221,0.08810693,-0.01648229,0.080722205,-0.045200918,0.028994996,-0.12199305,0.050439715,0.053716857,0.1333592,-0.071211874,-0.17256548,-0.08317809,-0.12921442,0.07739931,0.056878556,0.162936,0.016605025,-0.17168055,0.25592667,-0.19546823,0.18148303,-0.21607465,-0.10487662,0.06409965,0.1661285,-0.17079182,0.08412473,0.07863145,0.05414274
movie_1069,0.2674451,-0.053356282,0.20303527,0.14745821,-0.04337596,0.12625434,-0.06431672,0.08195316,0.16655566,-0.082294606,-0.041582298,-0.051581256,-0.28420952,-0.0647713,0.111643754,-0.1557574,-0.03256479,-0.081064075,0.1564592,-0.1033673,-0.08383442,-0.19337173,0.03483237,0.0055816537,0.11879407,0.023872057,0.092765845,0.19928865,-0.1770851,-0.053393696,0.11539727,-0.13951941,0.022515913,-0.10601881,0.106393896,-0.2172467,0.056073062,-0.13529538,0.035024244,-0.06861063,0.047356166,-0.14598677,-0.07599803,-0.20647687,-0.15146965,0.26201233,-0.105707176,0.08007015,-0.0077461465,0.013149491,-0.12163491,0.012489687,0.081007645,0.07535329,0.043864828,0.18119663,0.090631515,0.1153268,-0.05017918,-0.12207007,0.25553024,-0.08165386,0.055065818,-0.005696938
movie_107,-0.0947925,0.015680145,0.13481064,-0.026576517,0.0553687,0.061680853,-0.02681291,-0.04073523,0.062602654,0.034822933,-0.19623551,0.010092902,-0.08093089,-9.874312e-05,-0.06679148,-0.0402562,0.2368989,-0.0549587,-0.27200797,-0.19372058,-0.035571903,0.103856325,0.09933446,-0.16707936,0.008682258,0.18349023,-0.0064347633,-0.0045918375,-0.17804265,-0.029685711,-0.059987508,0.17399567,-0.10397707,0.24497175,-0.13483012,0.13373142,0.08033838,-0.20149449,-0.05445944,0.001244129,0.094028085,-0.14977744,0.12527928,0.19333673,-0.099112906,-0.13254653,-0.016890148,0.06180792,0.21421853,-0.050979618,0.23559408,-0.18843763,-0.064102106,-0.1768321,0.004829825,0.039200705,0.13362442,0.09770539,-0.08764802,-0.15834343,-0.07655979,0.19194129,-0.12594745,-0.13265896
movie_1070,-0.18607427,-0.052429542,0.22185683,-0.048377182,0.11270295,0.02810989,0.022241928,-0.07481321,-0.19071126,0.08343894,-0.07068109,0.052138094,-0.05242677,-0.08354098,0.15241838,-0.23698366,0.10830256,-0.1530233,0.15781362,0.3379034,0.033074334,0.15958603,0.067316435,-0.09388727,-0.13285899,-0.012380307,0.19482775,0.1348448,-0.25974616,0.059058454,0.019023685,-0.20098446,-0.06936938,0.12328201,-0.04749362,0.18806884,0.0107447775,-0.13188997,-0.0036602123,0.007931631,-0.0072436924,0.19430587,-0.008275783,-0.10613728,0.13318771,0.04009437,0.017500274,0.10214295,0.26186293,-0.03618561,0.13716462,-0.10850112,0.14081468,0.035610333,-0.012942843,0.13360386,0.08994899,-0.0818374,-0.052318204,0.027501125,0.049495496,0.015571006,-0.18890746,-0.02876779
movie_1071,0.19982873,-0.012923629,0.048452567,0.0507724,-0.019948458,0.102902345,-0.18218112,-0.15583058,0.15364003,0.12410794,-0.047663398,-0.017469395,0.02960184,-0.1877673,0.0061009196,-0.07579079,0.026496507,-0.12138089,0.14647317,-0.06313118,-0.11371172,0.044267565,0.29653266,0.15738682,-0.13085966,-0.1111154,0.0056825015,-0.0391095,0.22687656,-0.010487103,-0.010596339,0.08414365,-0.15565419,0.19005758,-0.05110609,0.10975669,-0.11958143,0.13581099,-0.026951488,0.087271035,-0.06434448,-0.0025664552,0.17875808,-0.18665273,0.14587262,0.1285847,0.037791654,-0.10189194,-0.10589421,0.23056915,0.06731769,-0.05187125,0.1584535,0.24966161,-0.22639854,-0.2159376,0.10621304,-0.07087662,0.06144812,-0.08548574,0.0042966874,-0.097036645,0.11186501,-0.042703867
movie_1072,0.12745246,0.078290686,0.12891653,-0.18132406,-0.013750417,-0.095984824,-0.17875235,-0.001031984,0.22288541,-0.19806829,0.052020665,-0.14622085,0.055040475,0.055282462,0.074615404,-0.12311155,-0.019559106,0.1734304,-0.041120917,0.3019712,-0.107440636,-0.030659094,-0.10544008,-0.28030345,0.11871451,-0.09309689,-0.0025487894,0.13797757,0.2213633,-0.08546969,0.039334577,0.07134227,-0.11045783,-0.10714121,-0.18778741,-0.05364782,0.13544522,0.04047817,0.26223654,0.09570682,-0.0094909705,-0.20217375,0.115547076,-0.05356647,-0.03153605,0.010012012,0.0002510787,0.15730613,-0.026877074,-0.114415646,-0.00063715107,-0.18186292,0.15913533,0.0027314865,-0.1419823,-0.08602578,0.12957379,-0.12679116,-0.02075721,0.09572683,0.16710596,-0.03261793,0.03767862,0.036120355
movie_1073,0.28941637,-0.110077076,0.04696523,0.21610136,0.038671583,-0.028494691,-0.17851405,-0.016770864,0.06005682,0.11276653,-0.099142775,-0.02611434,-0.102264166,0.031767327,0.07933659,0.16929887,0.012023126,-0.24000876,0.016518677,0.020253401,0.010257118,-0.073194206,0.14479567,0.024194406,0.08470722,0.05627103,0.11169489,-0.10635551,-0.054718286,-0.08648819,0.04805521,0.00012128447,-0.15072995,-0.01543271,0.15898874,0.17810154,-0.23346996,0.23455814,-0.071951136,0.17847171,0.18052673,-0.16119494,-0.12308977,-0.13072796,0.1647021,-0.1542339,-0.027908497,0.018317834,-0.0037541476,0.13593736,0.05869978,-0.023889024,0.08948633,-0.022797614,0.14905086,0.03272592,-0.21379355,-0.28606465,-0.14496228,0.0013265881,-0.0150446035,0.11775389,0.16222776,0.04998971
movie_1074,0.08058298,0.038903255,0.032188278,0.111932024,-0.13826446,0.07798152,-0.123550825,0.07572278,-0.08762604,0.22485565,0.14219059,-0.16284779,-0.0039152224,-0.13692778,-0.0013185308,0.07137034,0.12036712,0.18588367,-0.03479951,-0.015802762,0.11095892,-0.09013059,0.23735711,0.012735974,0.21705988,-0.18336535,0.20186329,0.12948489,-0.031759817,-0.005209655,-0.107162625,-0.04006813,-0.116986126,-0.10567237,-0.1608059,-0.14781143,-0.20317852,-0.02469526,-0.090448245,0.003477824,-0.12715967,-0.062326994,-0.08395384,-0.14733712,-0.1332935,0.2007123,0.1503884,-0.15394461,0.07962121,0.2710669,-0.056851413,-0.16797408,0.1611752,0.0783173,0.084859505,0.099759825,-0.0860891,-0.07143805,-0.025244555,-0.07763528,-0.12945865,0.105866216,-0.029853536,-0.19796695
movie_1075,-0.0003218326,-0.017695233,0.037460078,-0.20128514,-0.09541257,0.13812937,0.09589959,0.058094583,0.16617042,-0.03087119,-0.04702821,0.00033276432,0.03955899,-0.1638417,0.08929015,0.13919738,-0.20445101,-0.044949304,0.10680701,0.058828305,0.09533703,-0.20156792,0.15564148,0.055580683,-0.20884064,-0.16343437,0.091977865,0.2850445,-0.17851985,0.019682432,0.1730777,-0.11683329,0.033859394,0.09356707,-0.026659215,-0.0042139622,0.07653303,-0.22034217,-0.06733232,-0.0724174,0.0533062,-0.056289017,-0.14979161,0.02023002,-0.19966905,0.083489545,-0.010038999,0.1357361,0.08628234,0.17264628,-0.087727256,-0.1856354,-0.02017555,-0.081096955,-0.115417935,0.16093273,-0.15433031,-0.04637942,-0.0036778,0.14304104,0.24313305,-0.14357467,-0.14647731,-0.12877876
movie_1076,0.26605523,0.15333675,0.034184847,0.19235384,-0.0925435,0.0017138286,-0.03934657,-0.11370068,0.051705416,0.14417009,-0.17778072,-0.1928811,-0.13649015,-0.01573687,-0.16400395,0.073091425,0.04069269,0.06478313,0.033024985,0.03826567,-0.052910417,-0.0494258,-0.08755881,-0.12305493,0.05186376,0.14211725,-0.15979965,0.12033756,-0.12885892,0.210729,0.13742147,-0.08768891,0.13267092,0.08459695,-0.0066420906,0.061452318,0.022394568,0.04483241,0.09555431,0.15918422,-0.05126859,0.08761324,0.066819884,-0.16838996,0.015139633,0.23428026,0.22651523,-0.13942462,-0.015419408,-0.25085333,-0.15959914,0.019104945,-0.17434078,0.1959791,0.1316348,0.15462944,0.02670087,-0.007193593,0.15651125,0.060076877,0.16240843,0.054104105,0.14500105,-0.036963735
movie_1077,0.16129673,0.05207406,-0.073047034,-0.14026111,-0.007893528,-0.0968816,0.16774134,0.07281731,0.0062672193,0.2125717,0.13000298,0.00906163,0.06869814,0.30265525,-0.16584563,-0.05989494,0.14391054,-0.043122914,-0.08409753,0.24605706,-0.029395143,-0.04819048,0.13316008,-0.10122192,-0.12137062,0.049221613,-0.089507364,-0.012328515,-0.13612992,0.062866375,-0.20566845,-0.0971944,-0.11913419,-0.04896426,0.07276315,0.13928059,-0.018823486,0.13338964,0.042852685,0.06099553,-0.08280137,-0.060067873,-0.06879187,-0.258826,-0.26338628,0.119856544,-0.16159871,0.1465745,0.09537528,-0.241075,-0.1396687,0.09303852,0.056182712,-0.005296258,0.1842245,0.04544839,0.17660944,0.044351485,-0.114485085,-0.11745565,-0.057138007,-0.021993233,0.104591444,-0.07093042
movie_1078,-0.104717806,0.10696071,0.050942082,0.2798324,0.005725902,0.0038239702,0.103509866,-0.0047441744,0.21012242,-0.016294194,0.11079911,-0.09592007,-0.09927741,0.03910727,0.16560814,-0.17015684,0.06502257,0.03725404,-0.15997909,0.13984679,0.02485699,-0.07513109,-0.122924045,-0.049771763,0.18424167,0.079361595,-0.12428244,-0.26131254,-0.15835062,0.17974365,0.0675297,0.07834489,-0.037469666,0.12630585,0.07468662,-0.033639506,-0.05041029,-0.10599208,0.015265301,-0.21096133,0.12638362,0.09189689,0.094655044,0.14379029,-0.06547641,0.26905674,-0.19369213,0.1264112,0.26987386,-0.15993519,-0.021783456,0.09424083,-0.0696697,0.0982083,-0.0048357868,0.15524799,-0.027392313,-0.16556291,0.13017547,0.012436006,0.006551887,0.063787304,-0.033613,-0.14790508
movie_1079,0.029600969,0.15596536,0.09179838,0.21992327,0.0984254,0.026563844,-0.018343547,-0.12854749,0.060249325,-0.1295962,0.1388253,0.08471977,0.16575135,0.14874391,0.033168636,-0.11310208,-0.15712196,0.13144946,0.16271287,0.09153573,-0.007420655,0.015829394,0.05084331,0.1493012,-0.007389335,-0.23162389,-0.10572433,0.12221961,0.020059321,0.03829669,0.0037565234,-0.22827485,0.2324305,-0.13870272,0.13520798,-0.09973641,0.17371036,0.097746454,-0.11338936,0.20399971,-0.10391644,-0.018441388,0.044918586,-0.05662913,-0.1876943,0.019548863,-0.17452992,0.040346835,0.19052109,-0.120301865,0.06406168,-0.13543725,0.007020575,0.07742622,0.020087622,-0.09649747,0.107147686,-0.16634692,0.10383459,-0.14777473,-0.21525723,-0.14634147,-0.14763121,0.120499164
movie_108,0.15741251,-0.14214794,0.24601866,-0.11767727,-0.15628423,-0.053870544,-0.022863308,-0.04200334,0.0113408,-0.0068201455,0.08929895,0.057144836,0.021860953,-0.07643099,-0.12143504,0.15653129,0.07309838,-0.099651515,-0.10735551,0.043749496,0.12909828,-0.28486487,0.16994141,-0.2105858,0.17229596,0.09860942,0.16083877,-0.09971711,-0.1867164,-0.0019753962,-0.3372295,-0.16420203,0.29327568,0.03359996,0.25108823,-0.005184764,0.09242358,0.22355905,-0.017885813,-0.112782836,0.10148911,0.018263973,-0.022853186,0.013884851,0.019440515,-0.121849045,-0.102489874,-0.04076018,0.10560952,-0.009029095,-0.02901537,0.0036344954,-0.074526615,0.0954177,-0.045331318,-0.11825977,0.11031357,0.0032858578,0.044066288,-0.021246847,0.12662981,-0.0047905543,0.0965506,-0.01619234
movie_1080,-0.051026087,0.17862074,0.121042795,0.0021329885,-0.00025515762,0.12692997,-0.014296743,0.038481865,0.14716062,0.14079463,-0.06732081,-0.14204237,-0.10863176,0.14642458,-0.08840819,0.21848,-0.11282934,-0.045077786,0.01972862,-0.20474938,-0.044443797,-0.20720246,0.073131084,0.10125351,-0.051091306,0.15308276,-0.073956266,0.11440446,-0.2618878,0.11598959,-0.11240143,0.03859767,0.20709805,-0.059047006,0.05791968,0.06284578,0.17926627,0.05570049,0.011425415,-0.07841601,-0.11040687,0.09462254,0.059645955,-0.14792171,0.08964367,-0.1211639,0.12617289,0.08366488,0.06728283,-0.16067882,-0.022073817,-0.18150705,0.16882809,-0.07069861,-0.26440135,-0.24025832,-0.25782594,0.13552321,0.004399311,0.027891563,-0.06859421,0.017274655,0.0922885,0.090704456
movie_1081,0.025454449,-0.06833398,-0.1150435,0.02325667,-0.019159958,0.21539357,0.15436673,0.089204006,0.23642552,-0.09127532,0.15251584,0.025448807,0.0858272,-0.048434973,0.070885815,0.05596087,-0.1734992,0.038856566,0.10746478,0.10949681,-0.23508333,0.20852244,0.03611356,0.1526468,0.12782949,-0.11124085,0.111745864,0.19751155,0.053330652,0.08462644,0.10124163,0.0045590224,-0.011226515,-0.014782578,0.036577936,-0.0107774865,-0.31730863,0.16271287,0.043796904,0.06824476,-0.05796772,-0.031191908,-0.056214552,0.1798771,-0.12516809,-0.18919677,-0.009548416,-0.1279083,0.07577321,-0.04502333,0.11677851,0.17827398,-0.17135607,-0.104005806,0.12379545,-0.1973947,-0.2076501,-0.07601455,0.11470785,-0.17798395,-0.103411965,0.1082648,0.030444263,0.09660456
movie_1082,0.112516895,0.065861106,-0.055274434,-0.13420044,-0.111250125,0.11196213,-0.021604596,-0.016313652,-0.021971649,0.018490698,0.0536974,0.037433255,0.18127559,0.18844728,-0.18377489,-0.19879375,-0.04507308,0.006541614,0.0015389756,-0.16225389,-0.10871483,-0.25067368,-0.12560704,0.037066504,0.34988558,0.045111723,0.15122174,0.0019882533,0.17473747,-0.03315684,-0.08959338,0.105338134,0.19032666,0.09843809,-0.1722191,-0.15331595,-0.1372736,-0.04886184,-0.124523364,-0.058627207,0.22352584,0.1200762,-0.078449324,0.008149235,0.11766891,-0.124510445,0.19452806,0.16782205,-0.07713184,0.056293372,-0.16468981,-0.16948,-0.08072168,-0.032175183,0.18139602,0.13762707,-0.04759903,0.07256598,-0.058864795,-0.04234631,-0.010921453,0.084944166,0.10370393,0.10379209
movie_1083,-0.0044382936,0.0036651774,0.09321205,-0.16753834,0.18619661,-0.10034154,-0.045527738,0.14767286,-0.1276227,0.20719963,0.17145954,0.085826315,-0.10077361,-0.031607598,-0.14545609,-0.065859064,0.21614233,0.11586994,-0.0037166558,0.20918706,0.047436673,-0.18637058,0.18014295,-0.117796525,-0.038767375,0.0011029252,0.06618744,0.1293109,-0.009747629,0.067898445,-0.27017626,0.14116131,-0.03926792,0.13160431,0.042831644,-0.19631185,0.06960808,0.020209633,0.051541183,-0.017026663,-0.15535751,-0.07953484,-0.008698601,0.054625995,0.1885358,-0.0982462,-0.075389124,0.097902514,0.0339334,0.19915365,0.11787815,-0.004782519,0.03358631,0.26211336,-0.12043931,0.11286617,-0.102668755,-0.01656736,0.18184929,-0.22856697,-0.11251805,-0.014985755,0.16795772,-0.06360106
movie_1084,0.026494192,0.19772537,0.017024117,-0.1046574,0.09843032,-0.07861716,-0.105772115,0.025623847,0.21947993,0.012588826,0.07715898,0.1045038,0.111294135,-0.16045627,-0.023652168,-0.07670051,0.092047855,-0.11750096,-0.05996551,0.12805338,-0.22046295,-0.022071877,-0.012741716,-0.08362889,0.13055335,-0.09919469,-0.13324873,-0.12936872,-0.19107138,0.16143143,0.20147176,-0.04605408,0.047550537,0.045989193,-0.06315811,0.19588153,-0.0906837,-0.17442216,-0.015484186,-0.1998524,0.053664505,0.11674091,0.0052196425,0.0672013,-0.16592573,-0.0021479186,-0.2963878,0.017065793,0.18293297,-0.15161376,-0.040548883,0.062466513,0.17670998,0.0596625,-0.14367218,-0.1879918,0.21530034,-0.18843928,0.039539143,-0.050540574,0.11739059,0.09494298,-0.14625618,0.03274104
movie_1085,-0.09459682,0.13148117,-0.17584687,0.025086083,0.0613135,0.09307745,-0.1551001,-0.07750845,-0.09207319,0.096211486,0.1463346,-0.11998501,0.15529984,0.10064547,-0.13448654,0.082429454,-0.08314121,-0.17814054,-0.15379018,0.08739581,-0.13143554,-0.19975518,0.05698985,-0.09849861,0.032541987,0.17087857,0.116918184,0.12621237,0.008627634,-0.039196294,-0.090305656,-0.106561676,0.1182686,-0.08231762,-0.18473837,-0.15221664,-0.2751689,0.13634765,0.16739018,-0.013831288,-0.15963362,0.11260118,0.0040508625,-0.22171462,-0.22973768,0.01802295,-0.035227925,-0.039796196,0.051130366,0.20922357,0.018906785,-0.12410203,0.088537835,-0.10457489,-0.12668742,0.17158411,-0.050705906,-0.19123204,0.13439915,-0.05917662,-0.049658984,-0.07638345,0.13679488,0.08962522
movie_1086,0.15516424,-0.01981507,-0.028288119,-0.01652521,0.028049791,0.29882252,0.003186822,-0.27085882,-0.18931645,-0.05336931,0.069095135,0.028529443,0.15993765,-0.048269972,-0.007611032,0.07329413,0.119032726,0.1704978,0.113351956,-0.0006950391,0.025952687,0.06251106,0.12544088,-0.0027721275,0.12933096,0.13609885,0.12012047,0.04159078,0.1612784,0.03970467,0.095162846,-0.0059025227,-0.14095342,0.062764354,-0.06836941,0.040813904,-0.04283954,0.0430144,-0.27076274,0.12561321,0.22923262,-0.19143848,0.11793729,0.20026183,-0.19444735,-0.18127678,-0.016984705,0.03586031,-0.050717644,-0.15958269,0.20030041,-0.07757966,0.08279452,-0.15881488,-0.09384248,0.0037351476,-0.20651388,0.10111423,0.16824813,-0.08945461,0.016667811,0.078483105,0.028894411,0.13776045
movie_1087,-0.13235384,0.21847028,-0.15690215,-0.17378697,0.094089,0.058256295,-0.19970384,-0.18172924,0.07072014,-0.083808295,0.028869998,-0.10438041,-0.17972417,-0.096972354,0.114901625,-0.033814456,0.048775163,0.04946716,-0.17029259,0.10177119,-0.15785171,0.20048597,0.21660073,0.18001261,-0.034263305,-0.085024,-0.009401236,-0.19336984,0.049935725,-0.03726437,0.0016486588,0.11923923,0.16008449,0.08681167,0.038602166,-0.14439696,0.14729996,-0.03439368,0.06786762,0.21120214,0.12029784,0.05570877,0.027569631,-0.02535517,-0.06857248,0.008645145,0.2085831,-0.084329575,0.0034920669,0.03666033,0.17604531,-0.0010360613,0.12089989,-0.026182441,-0.053516425,-0.2328366,-0.08988787,0.16807635,0.05882797,-0.06864278,0.30251285,0.1293221,-0.04354916,0.032230824
movie_1088,0.23270172,-0.01224711,-0.15823051,-0.014817332,-0.08207088,0.16586539,-0.108006746,-0.24364956,-0.09654043,0.20497872,-0.014879319,-0.022009477,0.04886589,0.050864942,-0.14145996,0.13528593,-0.07352238,-0.014314812,0.24687113,0.17199291,-0.031197997,-0.14837813,0.08866783,-0.089275785,-0.13747041,-0.19015852,-0.06106799,-0.02911582,-0.17474507,0.05423977,-0.06813825,-0.017399926,-0.013187578,-0.1012636,0.04720309,0.07176351,0.18612055,-0.20356165,-0.12595361,-0.17691828,-0.0945023,-0.26010838,0.08379251,0.110975206,-0.113831505,0.076996766,0.11866118,0.09455491,0.10947013,0.029635463,-0.14711644,0.0799384,0.123966254,-0.05657966,-0.03922012,-0.22218464,0.117917985,0.1064429,0.047613334,0.20311825,0.047678936,0.11360713,-0.10125543,0.0581216
movie_1089,-0.12353962,-0.056930114,0.007786682,0.16265672,0.072786584,0.007633442,-0.14825587,-0.024915509,-0.098438166,0.22656359,-0.03766448,0.16850065,-0.17623053,-0.12831949,-0.11187989,-0.06994232,0.052433807,0.1256574,0.0020814084,-0.14356422,0.09137532,-0.06937999,-0.1307176,-0.04030501,0.22204453,-0.23093922,0.18958372,0.14293133,-0.23364404,0.007922928,-0.115281075,0.0528038,-0.094462566,-0.016517773,-0.10090307,0.13880831,-0.17645495,0.07105494,0.12259066,0.0033482483,0.11632484,-0.09869453,0.22520094,0.09127968,-0.2035683,0.17833342,0.06557201,0.0058350405,-0.022158585,-0.10903372,-0.06851228,0.086422496,0.2018751,0.16590102,0.085097775,-0.16635214,-0.046651755,-0.123568684,0.12754518,0.18883464,-0.067623,-0.016572058,0.08874708,0.10438356
movie_109,-0.09372593,0.009747587,0.111701615,0.034098398,0.059794545,-0.08649741,-0.11983778,-0.08291644,0.21390624,0.3202525,0.06515482,0.072511196,-0.012085825,0.19218071,0.06747355,0.045011126,-0.060890313,-0.14553957,-0.31278723,-0.06048657,0.111269176,0.056776255,0.035280377,-0.0918632,-0.028163396,-0.13730836,0.19474229,-0.022073539,0.15634169,-0.1870728,-0.19980092,-0.14860463,0.28145993,-0.08907792,0.17290506,0.08861049,0.033315007,0.10890585,-0.16574138,0.011740846,-0.11747611,-0.1500135,0.12628539,0.0012660448,-0.079253115,0.029530974,0.034254216,-0.08335402,0.24996312,-0.12645765,-0.11610594,0.04147445,-0.051592033,0.18308286,-0.0033011783,0.0027407582,0.048749212,-0.09036554,0.11719202,-0.025859565,0.08407718,0.075618684,0.10445739,0.031760946
movie_1090,0.055307973,-0.1304667,-0.032902546,0.16337144,-0.27109954,-0.09157436,0.10037003,0.08518869,-0.20181045,0.09428966,0.21347703,0.0745279,-0.13402764,-0.082798086,0.021856189,0.028573394,-0.017286984,-0.048209906,0.048341528,0.061903212,-0.13561116,-0.10004145,-0.17377146,0.13496278,-0.07819987,0.025587017,0.030452762,0.08986881,-0.13115667,-0.12942083,-0.014257211,-0.19750719,-0.1702704,0.01054143,0.2814455,-0.03587092,-0.13652469,-0.12442194,0.010662155,-0.12827294,0.23368424,-0.29976207,0.16497004,-0.15187672,0.15419577,0.04944521,0.04775727,0.1538918,-0.057782244,-0.035319824,-0.041614432,-0.021420127,0.07776248,0.16567722,0.17985304,0.01859074,0.0017107662,0.07124107,0.016433852,-0.16037436,0.024568917,0.0169503,0.1946314,-0.03885668
movie_1091,-0.16257048,-0.009343239,0.17209408,0.030427946,0.057315987,-0.10748721,-0.04873289,0.044758067,0.25056863,0.1180424,-0.15186952,-0.058661513,0.11607844,-0.17141786,0.026511043,0.13783373,-0.042859882,0.12721956,0.14242472,-0.034668528,-0.11982325,0.035564158,-0.17495526,-0.03762185,0.19544284,0.09105969,0.032160748,-0.15381663,-0.10781978,0.168474,-0.20748636,-0.20408751,-0.014377527,0.0013980158,0.06119902,0.18001409,-0.055227425,0.04626368,-0.01375485,-0.056484483,0.029023273,-0.19313355,0.22750987,0.085018076,-0.077237256,0.16992244,-0.05422614,-0.012799821,0.021268537,0.11135322,-0.09351363,-0.16016832,-0.0530013,0.10941509,0.035078116,-0.17206812,-0.013432096,0.07727262,-0.2904088,0.15168995,0.100227766,-0.031229427,-0.18786514,-0.20543711
movie_1092,-0.15535705,0.0035047596,0.23927645,-0.16408679,0.0424522,0.1393948,-0.043565944,0.09310408,-0.14573044,0.03885476,0.04840672,-0.06981653,-0.1620265,-0.12793875,-0.19598392,0.002379702,-0.0119301025,0.08161162,0.17253527,0.12165832,-0.009652917,-0.07064834,-0.1242405,-0.18359934,0.07387574,-0.13780731,0.12184574,-0.027598359,0.17070964,0.07046844,-0.088313654,-0.06500414,0.108419925,0.028578239,0.14642027,0.16610043,0.07585935,0.16565251,-0.12891409,-0.12753442,-0.051473223,0.14660843,0.08389388,0.014797786,0.19309211,0.015966186,-0.14595073,0.0066328943,-0.063870825,-0.1953159,-0.012412111,-0.09770853,-0.17989776,0.050454248,-0.1670062,-0.26786843,0.109687,0.13246053,-0.15203303,-0.16574463,-0.03622991,-0.19196542,-0.13562475,0.12616436
movie_1093,0.16554478,-0.057258733,0.010954956,0.08778074,0.021480262,0.074522786,0.15444146,-0.02092049,-0.04633024,0.04224377,0.07145587,0.05359819,-0.18468702,0.06536553,0.10005646,0.056321267,-0.05497747,0.08781308,0.04196209,-0.10966921,-0.14583033,-0.073831595,-0.23039189,-0.24514666,-0.1209203,0.07149894,-0.14607477,0.15891224,-0.056087274,0.04796856,-0.1589869,0.113403246,0.04474728,-0.14360963,0.058724582,-0.30714095,-0.12386618,0.099732175,-0.026447799,-0.15114819,0.045007434,-0.114360735,-0.083332956,0.09090549,0.1422603,0.1650263,-0.18694277,0.014220579,0.021528233,-0.16758414,0.23007372,0.01041945,0.025098065,-0.10109547,-0.22800764,-0.1388634,-0.0686755,-0.24206018,0.049087137,0.17709981,-0.10614494,-0.15962985,0.106792174,-0.047533974
movie_1094,-0.122040495,0.103670485,-0.048723023,0.003227796,0.15528928,0.16810091,-0.13220222,-0.15195344,0.102268495,0.084165744,0.15505247,0.21300259,-0.012697002,-0.01840914,0.0362982,0.1482111,0.18823084,0.10900477,0.12272001,0.22774598,0.118015595,-0.0711149,-0.037409406,0.040059168,-0.15806824,0.13664953,0.05065384,0.06126217,0.1251213,0.014702072,-0.23582353,-0.11222004,0.20113583,0.06380527,0.105452485,0.050865624,-0.00654879,0.056694146,-0.11385062,-0.09761398,-0.016055377,-0.041410584,0.18903455,0.07438357,0.13027819,-0.14368519,-0.012698827,-0.15000814,0.020138897,-0.1526974,0.22576335,-0.06252437,0.26398757,-0.111195214,-0.0025852397,-0.20090817,-0.18891484,0.1301564,-0.0054017436,-0.054998774,0.18021636,0.05590885,-0.11361986,0.07270114
movie_1095,-0.022853991,-0.12976393,0.025388403,-0.0846987,0.108985096,0.12908922,0.111378506,0.07742472,-0.1682261,-0.022866413,-0.051683277,0.01778483,0.07530604,0.17565726,0.080056295,0.1706746,0.04607111,0.15171008,-0.095735975,-0.07444583,-0.2662159,0.031800166,0.014758737,-0.029427856,-0.051552653,-0.11118701,-0.090791106,-0.0642111,-0.097503535,0.04568423,-0.036936454,-0.04781553,-0.08512095,0.27829513,-0.0018424989,-0.015892053,0.16065,0.19473155,0.16949084,-0.09406168,0.086800374,0.16569497,0.14115638,0.12437789,0.09796397,-0.040119324,-0.081031874,0.01284532,0.094291836,0.04124935,-0.001204246,-0.11554144,-0.034790695,0.057122026,-0.27416003,-0.1516985,0.09112922,-0.16722703,-0.39755663,-0.10516615,0.04454416,-0.011380184,-0.22129102,-0.104538515
movie_1096,0.042908177,0.123646215,-0.16745058,0.093314916,-0.09943443,-0.08156097,-0.060786925,-0.0014865353,0.19594076,0.05796541,0.12601292,-0.1370184,0.18342058,0.0863399,0.24073373,0.20588972,0.04696753,0.18628946,-0.17463139,0.0013876309,0.019624928,-0.13551712,0.079711586,-0.063497774,0.10896004,0.059728015,-0.01634413,-0.02261142,0.1769771,0.009970304,0.19094571,-0.12130607,0.23787768,0.0144618,-0.010547049,0.15923655,0.17925516,0.06382455,0.04402816,-0.08194111,-0.10783718,-0.21653889,0.1383716,-0.22940543,0.040459376,-0.037604734,0.1641341,-0.10888408,0.020940276,0.15978988,0.13942966,-0.002890002,0.21308777,0.17059131,-0.0003503084,0.14362384,0.13916935,-0.00019670713,0.020368012,-0.17332006,0.015150358,0.10061884,0.1116101,-0.015262838
movie_1097,-0.0005233088,0.04462358,0.08051511,-0.012889172,0.015455899,0.011135335,0.13385586,0.1839405,-0.20521054,0.218243,-0.18434316,-0.13219634,-0.0070523233,0.2300032,0.14155492,0.13414717,0.009253742,0.061008915,-0.19588743,0.2387889,-0.10068062,-0.11357499,0.038361676,-0.15649949,0.0063923113,0.072720565,0.08692302,-0.19432078,0.07361654,-0.12480098,0.06874976,0.010925203,0.021732049,-0.11047155,0.021150993,-0.0249898,-0.29040158,0.17275445,0.04156824,0.074592784,0.21978855,-0.025390433,-0.12894496,-0.13030562,-0.122106776,0.0146359345,0.053811964,0.043295432,0.10467919,-0.14349557,0.015197393,0.17372754,-0.170894,0.18578404,0.05111055,0.030437093,-0.11034828,-0.10341984,-0.059983984,0.21496685,-0.1573398,0.0010272489,0.12314953,0.053686775
movie_1098,0.011515604,0.22077496,-0.09354362,-0.07670038,-0.23634501,-0.11005855,-0.12837681,0.03942894,0.15151086,0.0774435,0.016684955,-0.035612896,-0.035556708,-0.12951168,-0.20958784,-0.16161852,0.08737174,0.15191436,0.05003892,0.19311003,-0.034097705,0.18962885,0.010297962,-0.13500485,0.18415335,-0.0042964793,-0.035496715,0.10652555,0.0595752,-0.2941892,-0.032002214,0.15205513,0.04588174,0.18020937,0.07816218,0.059323605,-0.09220474,-0.0032698796,-0.07590323,-0.18421349,0.019960873,-0.0033961881,-0.12770897,-0.16733927,-0.043311182,0.035443664,0.0425603,-0.05226958,0.17242382,0.0599705,0.22993252,-0.050436348,0.08740451,-0.03566006,-0.03474999,-0.047779493,0.14123785,0.12018414,-0.27175686,0.13954817,0.15391235,0.11645758,0.019492732,0.18399476
movie_1099,0.14351158,0.08567019,-0.14028132,0.14291756,-0.26033357,0.16522536,0.020248659,0.13942012,0.14445446,-0.04733193,-0.15611446,0.09794332,-0.16822886,-0.05924451,-0.11625422,-0.06997691,-0.11964283,-0.0066013173,0.11847923,-0.0044385092,0.028159387,-0.06443448,0.13025804,-0.073647276,0.053584363,-0.28612357,-0.1490363,-0.23877706,0.13322483,0.09376625,-0.06104854,-0.15405989,-0.12846813,-0.047325768,-0.0827965,-0.048434306,0.053666566,0.10996642,-0.14180496,-0.15686081,0.07840328,-0.31386822,-0.0030015083,-0.07049581,-0.2526064,0.021771116,0.015416759,-0.07925334,0.008676332,-0.036721002,-0.008529775,-0.041826602,0.15517066,-0.0226632,0.23403357,0.15215221,-0.1800429,0.060051933,-0.023542268,0.01565524,0.08402878,-0.1292389,0.019843321,-0.03487833
